47 300
./Punctuation -0.007913621 0.13661033 0.09257999 0.0008944176 0.101980306 0.013395644 -0.029957723 -0.09892228 0.058072742 -0.047097366 -0.028719276 0.029566437 -0.15003322 0.047671977 -0.015346672 0.0041625733 0.07845535 -0.06715805 0.0024745446 0.05364766 0.17474638 0.19034506 0.12124751 -0.05202468 0.00082959275 0.016403647 0.124142565 0.12541306 0.055359475 -0.049123418 -0.03008048 0.067557745 0.067983285 -0.0234916 -0.07610635 0.10985877 0.102539696 0.054508887 -0.04714268 0.067283556 0.09324571 0.103124864 -0.21803455 -0.011755134 0.033533044 -0.06166575 -0.1505267 -0.08422961 0.12779655 -0.15043397 -0.20064455 -0.022790855 0.011605314 -0.18186809 -0.15411882 -0.07238363 -0.020885192 -0.19210456 0.07673588 0.034247596 0.031505752 0.08992203 0.11795262 -0.053282753 -0.11065673 0.022056524 0.06250275 -0.12726788 -0.061744995 0.056610283 0.05260281 -0.014640347 -0.0476495 -0.18727483 0.09872178 -0.058328334 -0.05062531 0.016805615 0.03592008 0.018519226 0.1394838 0.17355892 0.13505581 0.009245097 -0.07636689 -0.13527524 -0.28908455 -0.046974722 -0.012213113 -0.15693742 -0.06757895 -0.117843695 0.010191721 0.12843506 -0.0048193685 -0.015022082 -0.08009734 0.07819627 0.06624495 0.15472272 0.034390368 0.09119873 0.02085479 -0.061071698 -0.039750118 0.09486672 -0.04435274 -0.057452917 0.17803134 0.058003955 -0.03601351 -0.010185031 -0.040895093 -0.10447281 0.043641977 0.1191256 0.013864398 -0.041569903 0.06449886 -0.13079545 -0.0489218 -0.049315054 0.14348978 -0.04514685 0.027808562 -0.08409654 0.043579016 0.20697093 0.0068904837 -0.056351755 -0.08597919 -0.07223784 0.14347596 0.18615106 0.035812493 0.11260706 0.08887932 0.0019399202 -0.077596344 -0.06587342 0.016208831 -0.16795288 -0.0560047 -0.047737435 0.029463824 -0.018138083 0.27340245 -0.11487052 -0.07182652 0.19333936 0.029806191 0.0026309288 -0.1697109 0.056757096 0.2631024 -0.05879698 -0.0795738 0.080583625 -0.10154293 0.15215191 0.07228832 -0.050390135 0.0829814 -0.03399974 0.12279976 0.028001612 -0.161543 0.016471123 -0.07317515 -0.073324226 0.046571825 0.06932963 -0.028025262 0.041171964 -0.15297085 0.15241738 -0.060773887 -0.16891043 -0.07584737 0.017068613 0.0270857 0.044662368 -0.21701656 -0.07631848 0.1652442 -0.14398368 -0.029523037 0.25517386 -0.07920916 -0.06752275 0.054105986 0.008213823 -0.04298645 -0.17109844 0.1175645 0.0974268 0.066374645 -0.034335025 0.008891893 0.07224891 0.042105947 0.066331126 -0.0058036377 -0.016714374 -0.015281119 0.01719686 -0.14073305 -0.062488526 0.21284203 -0.024901083 -0.13539818 -0.010534122 0.1249657 -0.12641829 0.13533854 -0.0006931707 0.053589616 -0.15089102 -0.018711803 0.0060180165 -0.0020830778 -0.00838805 0.093640916 -0.058561392 0.056302384 0.16649617 -0.13219126 -0.08329545 0.0058247475 0.10656968 0.031955995 -0.0773002 -0.14914997 0.07355169 -0.030106876 -0.08564047 0.07556381 -0.008176375 0.14772928 -0.066795155 -0.07089897 -0.11990193 -0.0003446359 0.13633068 0.068088666 -0.054593023 0.04226002 -0.011794808 -0.047000542 -0.03331332 0.13737556 0.04419113 -0.057940427 -0.12069923 -0.09110625 -0.03189513 0.109463386 0.0035873868 0.03826767 0.032579128 0.1154516 0.12537621 -0.10628906 -0.000732769 -0.026397673 -0.047759704 -0.20703237 0.0045261425 -0.04609648 0.06257392 0.09229857 -0.13257349 0.013968954 -0.07077724 -0.108824454 0.0452056 -0.0066984952 0.09905287 0.18082502 0.16175663 0.11640008 -0.06531911 -0.01990056 -0.07546572 0.034868643 -0.011869666 -0.124258325 -0.060970027 0.037332237 0.0051187393 -0.017426968 0.14478819 0.00601207 0.0128963385 0.09814663 0.029084792 -0.028994113 -0.05333193 -0.03328005 -0.16672528
영화/Noun -0.1368434 -0.07382379 -0.05753079 -0.023036215 -0.054948885 0.14545973 0.037001897 -0.054012008 0.048947737 0.12441328 0.18807381 0.091393076 -0.12039739 0.15784852 -0.106531076 -0.07826094 0.10530857 -0.08191595 0.014285937 0.21222708 0.027306441 0.053632334 0.062288657 -0.121430494 0.04236886 0.09404426 0.2358554 0.037045088 -0.024906214 -0.0054162615 0.14712074 -0.2096689 0.05546451 -0.17983846 0.0889106 0.13650641 0.054118287 0.19306475 -0.0547725 -0.0766988 -0.016238226 0.03863193 -0.28360966 -0.09394742 0.17676237 0.0878744 0.039809003 -0.0828892 -0.05899136 -0.074968114 -0.036813583 0.09157354 0.097426206 -0.10580084 -0.010127761 0.039608285 0.047505952 0.017331574 0.038897503 -0.15120555 0.10777632 0.061594196 -0.16550797 -0.016782328 -0.0472551 -0.061937504 -0.17492174 0.06584113 0.026530774 -0.09931978 -0.0012906083 0.16803329 0.15454647 -0.040421836 0.015051087 -0.23413208 -0.11661976 -0.08443963 -0.021608554 -0.124708064 0.10711905 -0.12458179 0.01615406 0.051928416 -0.024398128 -0.051564775 -0.118025355 0.062308084 0.07473353 0.03647837 -0.101888806 0.041504774 0.06614238 0.132372 0.048594546 0.045570977 -0.10769093 0.20758551 -0.037110943 0.13281123 0.2204994 -0.12088945 0.02541932 -0.02539144 0.019107493 0.081743054 -0.2212576 0.105027966 0.08817606 -0.1199861 -0.10410214 -0.04995639 -0.033755332 0.017260699 0.19753416 0.20180273 -0.031795222 -0.029337365 -0.05395727 0.05838434 0.0032486832 -0.15340228 0.050342362 -0.15330192 0.13007689 -0.069147386 0.14039403 0.05506945 0.041359782 -0.08842813 -0.26552552 0.06605121 0.11630891 -0.025287054 0.06454331 -0.1137295 0.050219737 0.05605255 -0.16084358 -0.087372735 0.045254488 -0.0024381445 0.17866984 -0.019699687 -0.09574134 0.17616141 0.053976256 0.032233298 0.037930682 -0.020930918 0.13297132 0.08481609 -0.11817948 -0.0068738386 0.038707215 0.013449824 0.0557141 0.15637141 -0.021136075 -0.109383 0.0649276 0.12414644 0.121349916 -0.08084157 0.12403509 0.06100595 -0.19614004 0.04721962 -0.033427972 -0.034523886 -0.1578896 0.037499413 -0.07710775 -0.09222801 0.078826465 0.026701689 -0.12401773 0.14470406 -0.18206522 -0.05219284 -0.15608108 -0.12549901 -0.08478037 -0.12381073 0.015401566 -0.16027373 -0.11865236 -0.056829147 0.06050872 -0.25035557 -0.064436965 -0.0111993 -0.07610903 -0.06652203 -0.09317485 0.143459 -0.027579626 -0.12768093 0.023856439 -0.09585256 -0.14089328 -0.096714444 -0.047197092 -0.17019656 0.032458078 0.13020174 0.015682917 0.030222666 0.015298008 -0.026061086 -0.013046684 -0.10618098 0.2589928 -0.13255478 -0.07906024 -0.21339443 0.045080513 -0.08678532 -0.011407197 -0.034034427 0.047256686 0.122237585 0.029581072 0.06009368 0.14527777 0.004099977 0.04522256 0.24126683 -0.16460411 -0.09182935 0.014776413 -0.023269385 0.02528751 0.07056269 0.04820461 -0.06582646 0.06218766 0.03208592 0.028207619 -0.064227134 0.15943253 -0.1783229 0.037980832 0.005985171 0.2183501 0.018193366 -0.06686665 0.042067856 0.025729626 -0.16011441 0.003357258 0.095894225 -0.08775568 0.044736836 0.036197487 -0.049264707 -0.16406034 -0.022246152 -0.014555756 0.106520034 0.1082576 0.15490666 -0.13039735 0.035474356 -0.11440904 -0.01586595 -0.0865643 0.17685157 0.07582731 -0.017944088 0.032838717 -0.12058084 -0.1705842 0.037700713 -0.07265076 -0.10811279 0.14286393 0.037448682 0.16437994 -0.10328269 -0.0013437504 -0.13133068 -0.019959128 -0.055171177 0.12315275 -0.0672215 -0.087694734 -0.120908536 0.13441603 -0.012276609 -0.104154 0.1429443 0.002894175 0.15348087 0.019903066 0.14004554 -0.2068621 -0.074363545 -0.12813462 0.0658663
하다/Verb -0.2171466 0.13467346 -0.07575634 0.07091104 -0.1630673 -0.01674281 -0.049230475 -0.004234842 0.12785494 0.14864619 0.061037533 0.15928818 -0.07998478 0.0114603 0.055532936 0.10310426 0.10153538 0.13748035 -0.1469748 0.11158419 0.022373348 -0.012423933 0.08606353 -0.041004002 0.047376744 0.25664786 0.08220543 0.144145 0.07761221 0.043849297 0.06246775 0.06580169 0.11820516 -0.027049515 -0.09770652 -0.035127196 -0.09799581 -0.057041284 -0.11228206 -0.063164994 0.01785249 -0.1247343 -0.011469964 -0.099473126 0.10228308 -0.0740841 -0.1275881 -0.04273049 0.06950817 -0.14345367 -0.22456369 0.048167825 0.06734288 -0.045308355 0.15599135 -0.16567102 -0.040109552 -0.09052117 0.12774014 0.18071215 -0.07125911 0.15603082 -0.07665569 -0.02537885 0.009153743 -0.09455237 0.008212873 -0.12700175 -0.11232672 -0.09912778 -0.009198888 0.0651233 -0.09001246 0.018218623 0.12576936 -0.023170322 -0.086942926 -0.08604581 0.09610914 -0.15524605 -0.019305894 0.013347298 0.15552317 0.07693028 -0.07069059 -0.12894352 -0.21027532 0.1335688 0.08196289 -0.052080978 -0.032605056 0.102295585 -0.036401875 0.17806704 -0.007106947 -0.17410766 0.1316086 0.09181257 -0.006134192 -0.10142204 0.17955434 -0.0007203984 0.022144651 -0.06482489 -0.19234782 -0.15139714 -0.20998633 0.11346982 0.17524697 0.19794063 -0.13682252 -0.009005853 -0.08725823 -0.09848167 -0.009641878 0.03765645 0.05183025 -0.030374877 0.03596283 -0.09963055 -0.079546176 -0.1641266 0.26675117 -0.108578034 0.0074563446 0.062339973 -0.0044349916 0.045722652 -0.05643095 -0.2533259 0.0030275388 0.026579333 0.11909905 -0.045249984 0.05370844 -0.046820898 -0.01109263 -0.1414924 -0.025573567 -0.08140847 0.12605822 0.034085806 0.027108338 -0.15665098 0.05658197 -0.039095197 0.27812445 -0.017557971 -0.13267122 0.051158857 0.12796415 -0.013204012 -0.10638357 -0.004269711 0.059063382 -0.16411525 0.03301002 0.024711099 -0.07834336 -0.12909928 0.094657734 0.09178404 -0.0028810855 0.07529719 0.15159933 0.102726534 -0.24853578 0.18609397 -0.06060228 0.021796897 -0.06622116 0.058894802 -0.102733 -0.020653395 -0.06286391 0.096900694 -0.1298496 -0.056526203 -0.05463131 -0.044320054 -0.019733394 0.10643256 -0.10852881 -0.1120677 -0.052338302 -0.11114049 0.10064064 0.021198172 0.049548056 0.09144781 -0.10471014 0.040086158 0.05453266 -0.08824086 0.12468549 -0.12045729 -0.030615222 -0.01838314 -0.059953824 -0.046149056 0.025541734 0.049037732 -0.04299254 0.021201067 -0.0392418 0.03251095 -0.08054043 0.06798523 0.11572401 0.061887577 0.005315302 -0.11847816 -0.008475393 -0.11876323 0.028993752 -0.081001356 -0.05385501 -0.047878686 0.17776123 0.15341265 0.032760102 -0.01909822 0.050789777 -0.09304117 -0.12175771 0.07490397 0.008662013 0.03290565 0.014166906 0.10451372 -0.02643122 0.09560532 -0.10507386 0.17728536 -0.03202043 -0.19563209 -0.020203246 0.0654132 0.118537635 -0.042602923 -0.0035499965 -0.011689724 -0.103392154 0.17723575 0.03844731 -0.14424932 0.043904778 -0.022757754 0.09169526 0.007598073 0.064512394 0.19230653 -0.06295267 -0.16549982 -0.008061663 0.02717616 -0.12863521 -0.08214914 -0.039190017 0.07181154 -0.023609618 0.20085506 -0.09473661 0.02600478 0.0027118933 -0.0066148336 -0.10292994 0.11079214 -0.19349548 0.034313947 0.24407826 0.03990308 0.106008306 -0.0032689096 0.040086016 0.12190514 0.08053934 0.031246074 0.067037515 0.049532678 0.019176662 0.043715984 0.040143576 -0.042943303 -0.043435268 0.03834863 -0.18060374 -0.048120443 0.09431955 -0.13225427 0.0847191 -0.010606389 -0.04630319 -0.007602364 0.003912158 -0.031088693 -0.02363634 -0.19485162 0.08218045 -0.01909393
../Punctuation -0.20450713 0.23233749 0.06450119 -0.07245013 -0.050454862 0.28881946 0.12347842 -0.042975973 0.29475757 -0.033998627 0.12237686 -0.124936245 -0.13406883 0.20904465 -0.21342349 0.1555104 0.2322738 0.085483305 0.25995883 0.11309779 0.13816687 0.10145168 0.22773874 0.050575245 0.028913032 0.17281827 0.011838992 0.13846163 0.26883534 -0.119096525 -0.06015833 0.101137854 0.08385201 -0.026442412 -0.07075497 0.18809552 0.115196265 0.058083236 -0.0498249 -0.141525 0.19840576 0.08729534 -0.2832293 0.07495095 0.2167081 0.18578804 -0.042883642 -0.06797352 0.10473526 -0.24049461 -0.22186027 -0.056696095 -0.06256532 0.1387377 0.18282686 -0.02284995 0.18326959 -0.08043258 0.16931392 0.20906849 0.24551757 0.0427699 -0.060185637 0.14390618 0.03675648 0.089159705 -0.123857826 -0.06021287 0.14897679 0.060105987 -0.007066405 0.14778042 0.118736506 0.062650815 -0.17343315 -0.11523892 0.19090968 0.113606445 -0.050414603 -0.07179711 0.13382016 0.2097225 0.23303396 0.10646085 -0.22789519 -0.1842256 -0.11453561 0.1098264 0.30760655 0.08945108 -0.2830428 -0.22735234 0.16456279 0.19373056 -0.09855218 -0.109511524 0.19189854 0.0051258486 0.010602415 0.13296019 0.048389208 0.35829687 0.049523465 0.24986045 -0.18579067 -0.08633368 -0.14494437 0.08223083 0.3068284 0.08462267 0.08932128 0.17775619 -0.23020875 -0.10651414 0.12546119 0.06389758 0.021487247 -0.053781632 0.072692975 -0.19664364 -0.23644665 -0.2062847 0.12541984 -0.13005576 0.12368557 0.03601845 -0.02627714 0.06477692 0.08782004 -0.24091412 0.027504325 0.047684833 0.24573031 0.104205005 0.23985438 0.1404204 0.13882102 -0.09693523 0.007912954 -0.11945274 0.092844695 -0.06655972 0.011377086 0.026770005 -0.041063495 0.026300052 0.11307569 -0.18916428 -0.22182865 -0.056989346 0.07181545 0.2086083 -0.13901927 -0.044176888 0.30120537 -0.1104188 -0.2610442 -0.07147678 -0.0642738 0.22571418 0.16536276 -0.17310506 -0.06399592 -0.14534536 -0.13258919 -0.14995462 -0.22819285 0.27163878 0.00043400162 -0.11810605 0.079720125 0.045951884 0.042755097 0.29030338 0.08959079 0.17143808 -0.10814268 -0.14548919 -0.10722652 -0.18289216 0.053007685 0.026958961 -0.24366292 0.088147536 0.14669962 0.15189582 -0.028861964 0.116306156 -0.034962263 -0.10519378 0.031430338 0.18913151 0.0004273813 -0.21982844 0.051536407 0.08402785 0.10563421 -0.13052993 -0.19549513 -0.13834673 0.092899054 0.20775855 -0.10098721 0.17152916 0.07245781 -0.112107314 -0.104087085 -0.017149942 0.12882906 -0.0930194 -0.065981306 0.042936224 0.08647663 -0.11386509 0.25918502 -0.20102733 -0.116316035 -0.113513544 -0.014534453 0.2813832 -0.15998913 0.1541678 0.07844669 -0.039874893 -0.010692168 0.2793643 -0.19905011 0.0076433267 0.012671391 0.08884334 0.056052234 -0.2266935 0.05100324 0.11292178 0.07889944 -0.119542696 -0.055894274 -0.122307844 0.10502658 -0.09439231 -0.11256639 -0.19972391 0.03620623 0.35965183 0.18227232 -0.0882205 0.05887672 0.0077544255 -0.01616126 0.019963717 0.17626084 -0.14838031 -0.11925561 -0.015745219 0.029135263 -0.28523025 -0.04875602 0.08465856 -0.10312604 0.13585305 0.039549824 0.106975555 -0.28459877 0.080352575 0.1363854 0.0016052551 -0.11563294 0.15466835 0.11279071 -0.038132295 -0.03416363 -0.10743031 -0.007823739 0.07524698 -0.14697675 -0.15798643 -0.17589666 0.11957804 -0.09729239 0.1458191 -0.01389723 -0.09177523 0.16827175 -0.18190368 0.009492039 -0.117777094 0.035729356 -0.043317296 -0.13360216 -0.14589885 -0.19917116 0.050930545 0.0065471125 0.008508743 0.15490341 0.043931212 0.10301655 -0.1868725 -0.026303181 -0.16230404
이/Josa -0.19226353 -0.01828229 0.030289786 -0.028452719 0.072641514 -0.048500612 -0.08937951 -0.02139582 0.06135869 0.1346141 0.008541469 0.0049193976 -0.13884789 0.12327242 0.026156371 -0.16753265 0.054185353 0.09742677 0.016630076 0.08156587 0.02760939 0.09390995 0.165 -0.1255645 0.086880095 -0.028945405 0.033678476 -0.07671161 0.09882359 -0.013919801 -0.054889865 -0.09738228 0.012491841 -0.091148525 -0.111987986 -0.008054616 -0.03805036 0.18600482 -0.13371295 -0.15799415 -0.10745906 -0.10246582 -0.04546275 -0.0913128 0.20101792 0.111143 0.0352004 -0.017610662 -0.055444974 -0.16363017 -0.2775648 0.0013855305 0.35621038 -0.046118528 0.036842648 -0.07455869 0.029243886 0.053461146 0.03316854 -0.029392408 0.012807898 0.053323977 -0.09151293 0.07333237 0.02606788 -0.09866367 -0.04141943 -0.0638424 -0.08733709 -0.09136441 -0.09355999 0.11650128 -0.044381414 -0.04012861 0.056716386 -0.054179914 -0.08608375 -0.093901776 -0.071625315 -0.1948664 0.0045908173 -0.19678153 0.08169433 0.20611686 -0.14970897 -0.10538069 -0.06787375 0.11203252 0.22109793 0.011205059 -0.14839864 -0.025376962 0.003994223 -0.05244568 -0.07661297 -0.13429497 0.11628835 0.05035651 0.002873851 0.049385224 0.20320791 0.024787722 0.031855505 0.008267474 -0.19947009 0.048572358 -0.0039029415 -0.024592087 0.19372419 0.10791803 -0.062235832 0.018212222 -0.043568484 -0.071348764 0.1099686 -0.041822877 0.04994377 -0.076644465 -0.011304284 0.08407291 -0.041025437 -0.10196779 -0.018811872 -0.13323018 0.02691958 0.061650265 0.04628066 0.0074566854 0.13241114 -0.090751894 0.051401082 -0.088574484 0.058657687 -0.15717974 -0.079520375 -0.121646985 0.20608805 0.02392246 0.037319336 -0.15204726 0.12607755 0.15412647 0.013035088 -0.18732399 -0.026981786 0.028525902 0.067260586 -0.016664594 -0.095753215 -0.15326004 0.21304107 0.030600341 -0.06435317 -0.020489141 -0.10515965 -0.14636011 0.068284675 0.16328114 -0.21313176 -0.09245213 0.14462438 0.10410062 -0.06955821 0.01349003 0.076723516 -0.20983903 -0.053210117 0.16796502 -0.02804904 0.096399754 -0.04855541 0.059497517 -0.060211908 -0.055408277 0.03867489 -0.039979976 -0.15203096 0.050659772 0.002338051 -0.07876083 0.026798269 -0.13182463 -0.08376547 0.030699627 0.101223096 -0.045607623 0.0073632277 -0.011409563 0.097328864 -0.10195323 0.007883919 0.041297212 0.062007617 -0.120966904 0.13959411 -0.045192126 -0.034311675 -0.1701422 -0.05008885 -0.014244232 0.08678415 -0.1850706 0.013576679 -0.064026676 -0.0755375 0.05765291 0.119970016 0.029855855 -0.034274824 0.0642291 0.16708548 -0.04895115 -0.083862394 -0.1410746 -0.0016439165 -0.2719656 0.1005634 -0.038199127 0.13829182 -0.0100338785 -0.058340106 0.11413145 0.2096597 -0.06398992 -0.105910845 0.080238655 -0.14411087 0.17997192 -0.20951909 -0.08019123 0.0034009165 0.040399622 -0.013374098 0.06460898 -0.13670366 -0.24083471 -0.14016132 -0.1699273 0.11513178 -0.0399712 0.007904603 0.015849672 -0.018692477 0.11269191 0.054818794 -0.09438532 -0.11515355 0.2082387 0.09309639 -0.030161384 -0.0034302433 0.050029386 -0.022269394 -0.161892 0.014593238 0.11037794 -0.022280233 -0.079897925 0.0073092543 0.109273225 0.0033955013 -0.08397978 -0.14339393 0.048494093 0.10247406 -0.1131327 0.054316472 0.17244685 -0.129219 -0.11640277 0.04117095 0.019048642 0.06288567 -0.053010613 0.008962173 0.029775305 -0.03837856 0.14681184 0.12718472 0.057220683 -0.014035493 0.0039167725 -0.09819668 0.022436572 -0.012362309 -0.043771982 0.03556285 0.1335168 0.15679385 -0.041149013 -0.038215276 0.14416969 -0.13001183 -0.134046 0.09011264 -0.027972702 0.060972564 -0.019291649 0.01731894 0.09219117
보다/Verb -0.11576571 -0.05482792 -0.053396937 0.11112008 -0.095637 0.05202868 0.001588593 -0.0640789 0.1649138 0.07718644 -0.22709931 0.12912948 -0.07952078 -0.0069242567 0.007403593 -0.203086 0.07684268 -0.27826032 0.016662475 -0.051572226 0.051126402 -0.13104473 0.04898071 -0.1235604 -0.16061555 -0.01356367 -0.038603336 -0.07882352 0.10550034 0.041577328 0.03860429 0.036992893 0.13975072 -0.07391032 -0.20654489 0.0037094443 -0.035811804 0.10798616 -0.18056245 -0.13252349 0.03450663 0.16709001 0.03190452 0.12307635 0.22708628 0.0069460017 -0.22500524 -0.3024708 0.06348635 -0.111981645 -0.09381591 0.10139925 -0.10107096 -0.17390661 -0.2149182 -0.15057404 -0.16961876 0.023320138 0.09718367 0.036045086 0.18729107 0.11994843 0.07035644 0.077871725 -0.102511965 -0.15536068 0.12738274 -0.09186441 0.08375502 -0.14149335 -0.025882011 -0.027054207 -0.062840275 0.14719051 0.18768086 -0.1532894 0.036431648 -0.01339429 0.042222258 -0.10577861 -0.19037847 -0.08044969 0.092161484 0.111117005 -0.17817076 -0.006721391 -0.07591276 -0.14384304 0.15639137 0.12528214 -0.14947186 0.052114867 -0.0851495 0.09620018 0.014626006 -0.062520616 -0.21068026 0.06038101 -0.017981255 -0.025867505 -0.13880885 0.036363002 -0.028290868 0.21261983 -0.02741445 0.18767408 0.15152733 -0.28582633 0.05445439 -0.17029998 0.13584542 0.15185773 0.023605697 0.017655823 0.20679305 0.31374028 0.121528886 0.1871899 -0.15347292 0.17735735 -0.089350566 0.0027474992 0.0078414995 0.017171936 0.095713735 -0.07214469 -0.053295404 0.10026069 0.16481183 -0.15407793 0.046143174 -0.0037401963 0.10773552 -0.013375446 0.00030728988 0.041613042 0.26083004 0.26690185 -0.010264368 -0.034372076 -0.049876668 -0.037103366 0.065428115 -0.02081557 -0.20425604 0.14398663 -0.0031287067 -0.13143301 -0.18467823 -0.035876065 0.14457807 -0.006316936 -0.29492068 -0.21085508 -0.21874298 -0.10537483 -0.015717411 0.016891835 0.074278414 0.04408475 0.16195028 -0.09151588 -0.07325251 -0.045126844 0.13633525 -0.17566846 -0.12536818 -0.058284815 0.09171345 -0.1944414 -0.069860056 0.018429583 -0.070121326 0.23255229 0.08532008 0.03739112 -0.056922693 0.3766995 -0.25403535 -0.0036011988 0.15935254 0.0663264 -0.14431664 0.02471635 -0.026813628 -0.14094773 0.06141411 -0.12898926 0.16360869 -0.17318997 -0.17555064 0.25874588 -0.07518499 0.061852623 -0.1284226 -0.18314545 -0.14170705 -0.0070958557 -0.15887024 -0.028090315 -0.16123419 -0.1960725 -0.012343584 0.021640142 0.28861442 0.03328235 0.01971285 -0.056498338 0.06648682 0.1410617 0.21903953 -0.09666587 0.050522346 0.068390794 -0.12095655 0.11484997 0.084863 0.03438387 -0.10591991 -0.009936714 -0.16391692 -0.14843862 -0.009684466 0.14837569 -0.06535198 -0.008611864 0.1758928 0.38767737 0.11058599 0.020248525 -0.10394156 0.00910501 0.026036246 0.08111112 -0.13462988 -0.026289586 -0.04375975 -0.058053616 -0.11700585 -0.12665488 0.034653638 -0.045538735 -0.26055625 0.09438466 0.059511058 0.043080833 -0.022264978 -0.08410867 0.024823701 -0.022224072 0.051359873 0.0691736 -0.055507552 -0.011748133 -0.22469053 0.04570857 -0.096959256 0.004529309 -0.14553897 0.042928908 0.08109897 0.12232609 -0.18899333 0.080464326 -0.13465527 -0.1285626 -0.18641488 0.30880147 -0.24152295 0.097083166 0.041274276 0.031707723 0.05748552 0.013499369 -0.25255337 -0.20046154 0.13800798 0.2634992 -0.10550584 0.023723802 0.15665184 -0.06534334 -0.015455777 -0.025692025 -0.009218115 -0.098645 -0.14102301 -0.011193645 0.060601525 -0.07201338 -0.054210868 0.15061808 0.022354202 0.075561605 0.11664859 -0.022176856 0.0014881636 0.049971897 0.039022353 0.080678135
가/Josa -0.22942366 -0.32854584 -0.25759172 0.08250951 -0.07699151 0.31543556 0.0011594805 -0.16835155 0.25477237 -0.03587509 -0.004306836 0.27473336 0.114639156 0.27428934 -0.14275226 -0.042288087 0.032155644 -0.22880548 0.015158292 0.2417881 -0.03777326 0.02172597 -0.089432485 -0.14679992 -0.18658435 0.35223272 0.08226071 0.24942316 -0.12813474 0.14051269 0.17440942 -0.07332535 -0.019972878 -0.28245407 0.10730309 0.18677278 0.033380285 0.070942886 -0.11764685 -0.27797517 -0.08961188 0.15337597 -0.1560091 0.0032662675 0.044131946 -0.096408464 0.23005526 0.12070975 -0.15105724 -0.32221836 0.060451355 0.043682937 -0.04670317 0.17772214 0.055658057 -0.15553486 -0.08759411 -0.14192411 0.105557956 -0.09387538 -0.025748152 0.052695084 0.003641958 0.22310568 -0.036938895 -0.23509607 -0.19529064 -0.03314665 0.10410416 -0.28739226 0.14300598 0.1547263 -0.13248453 0.22237088 -0.0236781 -0.15104607 -0.21821031 0.16940144 0.15250292 0.054747604 0.10211547 -0.04740217 -0.089140706 -0.0042228224 0.019383129 0.030975405 -0.07156705 -0.100155145 -0.2714386 -0.3096371 -0.044953946 0.09641427 -0.007514389 0.07557051 0.1417112 0.037064664 -0.29025087 0.25623912 0.2204587 0.030054063 0.21303442 -0.28773633 -0.21288571 0.07661685 -0.17406923 0.058448944 -0.10338802 -0.014837739 0.10245433 -0.11329095 -0.09554162 -0.4051218 -0.05344378 -0.012790542 0.20906436 0.115275614 -0.12231352 -0.0035936194 -0.30567142 -0.2561603 0.1278369 -0.115516804 0.19209337 -0.03971693 0.12695032 -0.01170441 0.4419326 0.05264385 0.34644276 0.10383614 -0.19511351 -0.16615534 0.11274812 -0.012299645 -0.07496812 -0.12970959 -0.07043653 -0.18804544 -0.20479603 0.06293231 0.075148724 -0.14549609 0.07248358 -0.08134169 -0.036261633 0.052796308 0.19910586 0.0040693856 0.034692764 -0.030057669 0.057248015 0.0052644974 0.0131899435 0.027359735 0.053716533 0.008026576 0.10945324 0.07378172 0.29714233 0.09978795 -0.14927255 0.27140862 -0.04935513 0.1600198 -0.13673836 -0.20237526 -0.2005132 -0.16381434 -0.07038558 0.21887611 -0.03684116 0.16119997 -0.4101126 -0.16230929 0.09604888 0.021961724 -0.034856804 -0.14043318 -0.13988739 0.08283824 0.019711133 -0.13310567 -0.20539637 -0.01155879 0.1803921 -0.120268665 0.17059435 0.26563507 -0.05490559 -0.24315447 -0.026377654 -0.12338337 0.036413405 -0.17193642 0.0028810313 -0.046664204 0.09944025 0.05158253 0.09162846 -0.21779269 -0.4245655 0.078652464 -0.14591753 0.048781905 0.16625166 0.16946717 -0.0029050205 0.03829553 0.14946641 -0.19050382 -0.067343704 -0.15513861 0.30550689 0.26402596 -0.0002417991 -0.15343015 -0.051901016 0.1369654 -0.17814572 -0.20860966 0.09320774 0.37517142 0.09779692 0.023186967 0.10426206 -0.22758155 0.15394159 0.29609227 -0.03923135 0.06785545 -0.21894827 -0.094508156 -0.060844395 0.20425004 -0.06695809 -0.025426485 0.22454517 0.049066413 0.22933097 -0.22129953 0.13241178 -0.1754874 -0.015347012 0.048103265 0.1313445 0.11241703 -0.28245983 -0.05821447 -0.09192321 -0.27236754 0.0075773597 -0.0013294363 -0.0008161026 0.3306113 -0.19988967 -0.0982687 -0.052397117 0.010159577 0.14774303 0.22700955 -0.17792597 -0.06137074 0.0050680204 0.26637158 -0.36314592 0.1436465 -0.03823616 0.23282088 0.22744796 -0.016446305 0.09551057 0.04037517 0.103780665 -0.032177214 -0.18274796 -0.11043725 0.19545245 -0.020510083 0.17214343 0.13207877 0.007474819 0.013754402 -0.3514237 -0.19362521 -0.1474261 0.1535034 -0.17545775 -0.02539995 0.12927747 0.114047654 0.22652316 0.01836392 -0.014270014 -0.14324844 -0.038018964 -0.018544778 -0.10043884 -0.15887137 0.032443356 0.42161292
도/Josa -0.1065994 0.0842702 0.021800369 -0.10494975 -0.109004535 0.16516343 0.15573286 0.057237316 0.03853724 0.08998465 -0.07177323 -0.15492511 -0.2111849 0.06321389 -0.10376945 -0.15849717 -0.001241433 -0.34690946 -0.036825232 0.14259368 -0.079788506 0.15789023 0.055707198 -0.077857345 -0.042775016 -0.07966148 -0.005641605 -0.031266004 0.051950414 0.01236174 -0.20235845 -0.094866976 0.05752729 -0.016598485 -0.20941763 0.2216729 0.062680185 0.12848099 -0.08395984 -0.07705824 0.10190232 0.122381024 -0.11466088 0.11066222 -0.06777442 0.015055175 -0.22323103 -0.10889866 0.07229789 -0.0423635 0.012363492 -0.15136892 -0.075465344 -0.09973114 -0.14261621 -0.06852644 -0.07571082 0.05815769 0.19208436 -0.09551259 0.002268885 0.108850226 0.01818504 -0.042144645 -0.20956928 0.09929253 0.04949518 0.0041173357 -0.12575403 0.039799757 0.014363015 -0.16717014 0.17813106 -0.09348733 0.12420483 0.0066846544 -0.04964648 0.11577884 0.12713033 -0.007117762 0.032990485 0.09601392 0.0735996 0.024358546 -0.11541195 0.0006131219 0.047257803 0.045011356 0.12203156 -0.18505809 -0.190242 -0.25350767 0.018430337 0.12875453 0.076407604 0.020156888 -0.2399392 -0.008140277 -0.021583807 0.036364663 -0.06397754 0.17447072 -0.1271493 0.17467332 -0.054599606 0.017045626 0.16955264 -0.034239173 -0.034869473 -0.013526249 -0.13417242 -0.139765 -0.033245634 0.057642363 0.023344878 0.17246182 -0.0636554 -0.023810344 -0.1320284 0.14964667 -0.22367415 -0.18131076 -0.030356107 0.007298335 0.08898043 -0.18199684 -0.017704908 0.045496576 0.03890983 0.09113361 -0.016312083 -0.017124994 0.030217737 0.099876195 -0.030293593 0.10240221 0.28242135 0.09242501 0.088331416 0.027274143 0.04268521 -0.14403535 0.16912666 0.13580589 -0.18435621 0.14887094 0.1012389 0.015654994 0.06752372 -0.056905918 -0.041974943 0.114182495 -0.047972634 0.01761383 -0.021911284 0.013389205 0.12555863 0.049329124 0.030560305 0.06604183 0.25236776 -0.06990198 0.01117818 -0.18878207 0.05004477 -0.23622164 -0.17138557 -0.13478692 0.08447381 -0.14642635 0.097156204 0.031532228 0.086357065 -0.055633422 0.027809894 -0.049748182 0.027443152 0.07718912 -0.06845557 0.050458174 -0.0058566504 0.14459348 -0.06172575 -0.010718598 0.18343903 0.0055389768 -0.014054523 0.05343275 0.1468382 -0.094681405 0.071187414 0.06935481 0.0740809 -0.20526262 -0.021829221 0.13820167 -0.011950425 0.09932283 0.118331924 0.07519795 0.0832855 0.05854698 0.023215374 0.14820167 0.11090158 -0.107090995 -0.0909828 0.00058460154 0.109688416 -0.055994313 -0.025692867 0.064099215 0.099706374 0.11235453 0.028584998 -0.0073795067 0.10517192 -0.006170079 -0.14494376 0.043729227 -0.14300433 0.101399034 0.0108285975 -0.007058802 -0.05278424 -0.03070959 0.081251085 0.03264448 -0.042268343 0.07141436 -0.056938533 -0.17251438 -0.2571394 0.055399965 -0.12686028 -0.21308386 -0.095202856 -0.13611414 0.021799397 -0.18680103 0.11787932 -0.1859468 -0.18752357 0.040541653 0.068064176 -0.013307636 -0.20933156 -0.0672169 -0.009682841 -0.15578926 -0.052233066 0.00933077 0.044122532 0.06291447 -0.17930621 -0.011871659 0.096863784 0.040043723 -0.028778596 0.12164478 -0.07804866 0.0013846754 -0.25725356 0.090581566 -0.104531325 -0.036822744 -0.3159074 0.10333956 -0.0014583147 -0.033644393 -0.024402337 -0.14295642 0.09643676 0.08962108 -0.20149675 -0.28717867 -0.042785864 0.21705295 0.19439578 -0.00732396 0.12621386 -0.061307713 0.029843014 0.031345226 0.013020562 0.011334293 -0.025226245 -0.025141722 0.06875258 0.12904553 -0.1398014 0.26879072 -0.0100578 0.022552542 0.1036402 0.032609664 0.066104464 -0.033434518 0.19615343 0.038012933
은/Josa 0.14598426 0.020874131 -0.09082475 0.09942456 0.09365134 -0.024485042 0.0075610313 0.038142193 0.25472564 -0.002659032 -0.10074306 0.028123632 -0.13899542 0.20533286 -0.017693287 0.07066877 0.30808386 -0.18785308 -0.018744383 0.07718578 0.16080633 0.19063877 -0.0321692 -0.23087485 -0.12943786 -0.015520086 -0.05650694 -0.055771362 0.09437858 -0.1115857 -0.113269836 -0.038634993 0.09061435 0.18088296 -0.16119237 0.13822646 0.08148449 0.17578934 -0.097173624 0.075138986 0.20686658 0.061040044 -0.054053582 0.12913245 0.005019215 0.052433815 -0.1693624 -0.10072564 0.13855419 -0.13562681 -0.15038326 0.049000014 0.09126188 -0.12859161 -0.09224902 -0.08180562 -0.01723841 -0.20986594 0.12413324 -0.044182938 0.09168265 0.048683822 0.04634027 0.075128086 -0.075178 -0.030288026 -0.19710685 0.05115468 -0.0403453 -0.046381183 -0.047594007 -0.04481355 -0.052895926 0.02200894 0.10345666 -0.014239469 -0.05868339 -0.10860018 -0.024331056 -0.04504519 0.059082508 -0.01279582 -0.004574697 0.10698832 -0.06441471 -0.106427126 -0.17472547 0.061401278 0.093289755 -0.054946512 -0.20289518 0.19192836 -0.0377054 -0.014357957 0.014490319 0.09445376 -0.061127737 0.07276613 0.099985585 0.063077 0.06112273 0.08262683 0.04952015 0.120059706 -0.1799609 0.29647884 0.043747798 -0.096084 0.09432841 0.0914859 -0.003521017 -0.01525044 0.16682082 -0.16157655 0.051569134 0.1533886 -0.109731026 -0.26345962 0.026345847 -0.01982747 -0.063278265 -0.07723552 -0.025327902 -0.060235526 -0.12213347 0.08096352 -0.15643653 -0.046358433 0.043353073 -0.072681576 -0.044573337 -0.057392098 0.10777358 -0.041975573 0.10876257 0.05577435 0.26645887 0.12834857 0.022556076 -0.009833413 0.10991439 0.029001748 -0.120836064 0.0026431265 -0.15706429 -0.11329181 0.13859873 -0.076651886 0.023673395 -0.11779437 0.23439941 -0.06413121 -0.27592272 -0.12318409 -0.07700891 0.024320975 0.1538229 0.16891141 -0.15153158 -0.08747315 0.045041453 -0.0682102 0.096910216 -0.10236159 -0.029292863 -0.14366886 -0.11924749 -0.007417033 -0.015908342 0.12712699 -0.05622139 0.08787593 -0.14029783 0.0050329454 -0.008539632 0.009138996 0.013252066 0.10571745 -0.12832135 -0.12980637 0.059370592 0.06666559 -0.12880157 0.07307682 0.026295343 -0.17585069 -0.0788628 0.046289045 0.073037036 -0.0313946 0.03573866 0.0049966318 -0.007027902 -0.14563332 0.07702418 0.11348454 -0.066181496 -0.08603965 0.18017554 0.08959009 0.014151004 -0.11679873 -0.025192294 -0.081931785 -0.040196452 0.044366777 0.06328529 -0.012449069 0.038393244 -0.018416481 0.07779646 -0.16326623 0.075844854 -0.1343874 -0.1067472 -0.031698573 -0.011229636 -0.06739596 -0.022902653 0.032526314 -0.11967317 -0.0042481925 0.18062992 0.14325622 -0.15411134 0.09262486 -0.24115366 0.21439192 -0.003912848 0.06566903 0.08080726 -0.096189566 -0.070711575 0.14861493 -0.046411343 0.036650997 0.0020998686 -0.034537762 0.0031656225 -0.13625449 0.21071361 -0.1659835 -0.13535933 0.13563761 0.009795108 -0.11035246 -0.031170014 -0.13223498 0.09973941 -0.09757129 0.11850814 -0.09244584 0.026471682 -0.13290733 0.10000579 0.007730479 0.13007103 -0.0040941043 -0.10444324 0.11950835 -0.20810182 0.22432685 -0.19516273 -0.07389925 0.003745124 -0.055030704 -0.10569455 0.14595506 0.09566837 -0.12045441 0.046915952 -0.0369524 0.051662907 0.01758142 -0.2467464 -0.010724203 -0.034700446 0.08780259 0.19381103 0.041060377 -0.0006957397 0.03130873 -0.1391573 0.061744176 -0.019579886 -0.28804013 -0.07410576 0.059674032 0.327193 0.09179198 0.015629094 0.12062336 -0.3326706 -0.05146543 -0.019948823 -0.15520817 -0.0036479305 -0.1405224 -0.0065596467 0.042509902
는/Josa -0.32024273 0.04943448 0.109628804 -0.0682395 -0.17284817 0.03923681 0.020628342 -0.0016688562 0.12288128 0.07435406 0.07215728 -0.103519104 0.012246913 -0.040770315 -0.19433631 -0.032329615 0.00211967 0.13306145 0.10568212 0.16040087 -0.2235704 0.021197824 -0.18816002 -0.037613105 0.077704996 0.19824815 0.11677942 0.071893625 -0.01854115 0.015018784 0.05352985 -0.06380217 -0.036559887 -0.106449194 0.035725176 -0.14634122 -0.25304213 0.020994877 -0.06741224 -0.03032552 -0.17585279 -0.18214728 0.0042321417 0.084725164 -0.16932692 0.07071893 -0.15178019 0.03631527 0.17724465 -0.13340276 -0.23995529 -0.13001928 0.16245653 -0.054986548 0.18654361 -0.23960729 -0.11478495 0.12336601 0.06029051 0.14474747 0.09599104 0.16849975 0.05692 -0.16107377 0.031989537 -0.13709639 0.09113101 -0.021539496 -0.18027098 -0.19992161 -0.09054321 0.011054963 -0.08499764 -0.028986234 -0.0670489 -0.05093979 -0.0010324549 0.07771061 -0.012112988 0.015670078 0.00058495183 -0.044727895 0.052763525 0.17951055 -0.13989311 -0.22759804 -0.2434446 0.20891383 0.14250197 0.021229522 -0.15575881 -0.09384813 -0.2401508 0.16203798 0.13368914 -0.108712934 0.05211601 -0.07820056 0.15026183 -0.03689358 0.20343176 0.04176555 -0.11808365 0.023330072 -0.13243595 -0.06278306 -0.041358147 -0.010170941 0.0807896 0.091250956 -0.0655788 -0.100378014 0.06826546 -0.2046815 0.0041745277 0.011578015 0.028581291 -0.042245716 0.16595785 -0.12471523 -0.29333597 -0.07421445 0.025040505 -0.059010517 0.053433664 0.06235832 0.11210885 0.068820536 -0.02006414 -0.09150384 0.07972588 0.020990381 -0.11910059 -0.006725276 -0.20725784 -0.133754 0.053203594 -0.058589485 0.025885923 0.09436726 0.13321316 0.12614925 0.16623174 -0.012135601 -0.119742356 0.005549506 0.23633704 0.068070546 -0.08761281 -0.023027813 0.044135198 0.1530214 0.032550823 -0.18664569 -0.019861272 0.048055943 -0.05128527 -0.0038184929 -0.06602129 0.05280217 0.008763015 0.1647096 -0.044114187 -0.010798907 -0.13657066 -0.05037896 -0.079300895 0.108887225 0.007528124 0.07155085 0.03140312 0.17586367 0.032846916 -0.1525406 0.118698806 -0.0031775937 -0.23437023 0.0073185214 -0.045239028 0.09527915 -0.031263717 0.11061231 0.02634155 -0.0077282814 -0.03423759 0.080762304 0.09637557 0.0059909527 0.05369467 -0.23207155 -0.22349465 0.025310412 -0.14333332 -0.1691697 0.15337023 0.07917033 -0.14183806 0.0053316928 -0.025756381 -0.14216974 0.029975738 -0.060295682 -0.032995783 0.2643868 0.26696792 -0.11330548 -0.134901 -0.096122205 0.12772185 -0.019062966 0.27915317 0.013904943 0.118462674 -0.032566324 0.016756067 -0.071070366 0.05101799 -0.35615245 -0.0138973445 0.23405425 0.038345695 -0.009105121 -0.09251116 -0.116072506 -0.06695646 0.053407554 -0.026179448 0.16484891 0.11686037 0.07038551 -0.2271228 0.038927585 -0.06592973 0.049446348 -0.078087576 -0.32376593 -0.21793312 -0.10031378 0.20625909 -0.07693053 0.11291602 0.029177854 -0.032689407 0.21179682 0.055616118 -0.07111159 -0.0005571592 0.1391863 0.0853856 0.10926271 -0.017992679 0.21423043 -0.14217474 -0.0014200833 -0.13378415 0.010115195 -0.11574797 -0.0007182844 0.011120623 0.11799058 0.020147294 0.050206684 -0.08543312 0.10031229 -0.12253872 -0.081198364 0.04981322 0.115462236 -0.08689293 -0.07475509 -0.034207508 0.0051650372 0.017077893 0.08276898 -0.3115486 0.11581286 0.081115626 0.28486893 -0.120901935 -0.13662685 0.15364257 -0.0015253919 0.04947331 0.0097241 -0.05034772 0.11167923 0.12697753 0.02359302 0.21402541 -0.10395102 0.117582634 -0.03829951 0.048486702 -0.18396403 -0.11319824 -0.22147572 -0.1552146 -0.08441824 -0.039268244 0.031799864
!/Punctuation -0.08402564 -0.15679763 -0.116133064 0.08099974 -0.546244 0.24936263 0.35965955 -0.06076439 -0.030208698 0.06738561 -0.3058883 0.17582984 0.13056548 0.20536627 -0.043170936 0.02899625 0.10702976 0.030317055 -0.06956208 0.24574856 -0.1556191 0.07489297 0.071233906 -0.1998323 -0.10665967 -0.029204935 0.33913773 0.021714605 -0.034647595 -0.06382297 0.30246344 -0.39507955 -0.20551154 -0.4394758 0.061173365 0.050137624 0.020134632 0.09530757 -0.162783 -0.04647267 -0.059277143 -0.09596116 -0.34148735 -0.40978163 0.13344026 0.073258646 -0.0767144 -0.07202788 -0.16046101 0.16523018 -0.017261785 -0.15433185 -0.20096663 0.056037538 0.1959137 -0.07619781 -0.0035201104 -0.0064705713 -0.08199552 0.029759457 0.3290506 0.21615762 -0.014893759 0.09206419 0.124328904 -0.5414481 0.12066651 0.38996118 0.075649105 -0.59862673 0.029507808 0.023193883 0.23199247 -0.2141169 0.21405275 0.07701273 -0.4882928 -0.28163198 0.088445395 -0.10334313 0.20042534 0.00971025 -0.30478805 0.06760148 -0.060629472 0.008502273 -0.28088266 0.11447912 0.19129711 -0.084511146 -0.06483817 -0.13636006 -0.19327413 0.34300885 0.019852094 -0.06102025 0.012786819 0.37707597 0.039555244 -0.05263645 0.30557328 -0.17685148 -0.15808995 -0.080858454 -0.04421393 0.03375485 -0.25533697 -0.020591862 0.012448352 -0.11742175 -0.25877514 -0.18761292 0.0693335 0.25976512 -0.008363197 0.027915098 -0.27719724 0.3468188 -0.16219638 0.31486988 0.1411292 0.008453856 0.073636346 -0.26472482 0.034092788 -0.06880548 0.07806466 0.00787662 -0.16383854 -0.14894791 -0.09063162 -0.09234755 -0.26803043 -0.3043959 -0.16801822 -0.07367222 -0.051113654 0.03204123 -0.13228603 0.29976514 0.11838641 -0.062105834 0.38797137 0.05162775 -0.062340617 0.2857743 0.1298482 0.32476562 0.22318241 0.008689414 0.06304359 0.20311895 0.08856834 0.17195608 -0.05359988 -0.004284113 -0.08435259 0.06417603 0.35483232 -0.032130975 0.15286028 -0.056641575 0.2774976 -0.33485693 0.28286752 0.08979211 -0.017181518 -0.0075146123 0.03454059 0.016706103 -0.122339636 0.11755427 -0.09053671 -0.12810454 0.23080532 0.23085904 -0.0011323623 0.051292825 -0.07865982 0.030902645 -0.17282216 -0.04420964 0.11997951 -0.28189906 -0.049852688 -0.09093563 0.06605749 0.15421878 -0.011649939 -0.43037957 -0.30366176 -0.28908142 0.18332435 0.029595481 -0.16906114 0.11198399 -0.14625616 -0.09938337 0.13780178 -0.14972325 -0.032845028 0.17851147 -0.08802119 -0.15790653 -0.03647087 0.2153385 -0.18607299 0.31300604 -0.00065349403 -0.099353775 0.12041993 -0.22086595 0.17279732 -0.17081134 -0.026549572 -0.09733738 -0.19057553 -0.23289376 0.006650147 -0.2059322 0.1636259 -0.00087707804 -0.379993 0.045599446 0.15237491 -0.0388943 0.5612678 0.0144343665 -0.11956972 -0.22710598 -0.23972106 -0.076162286 -0.0991105 0.2200189 0.08428324 -0.053121123 0.059463553 0.18797646 0.21941341 -0.22625586 0.017407892 -0.024392363 0.30116427 -0.10308727 0.080845684 -0.42214942 0.15522663 -0.026982518 -0.08414161 -0.3227158 -0.13508743 0.106347606 0.05270878 0.16545516 -0.15759146 -0.023506574 -0.306081 0.078935966 0.16673376 -0.14105514 0.32308578 -0.09874189 -0.019350247 -0.20383015 -0.056754928 0.08930401 -0.35371837 0.073107526 -0.2891722 0.12818022 0.08185316 -0.2581214 0.11349661 0.010249954 -0.11023235 -0.020378731 0.6050776 -0.10889462 -0.12506588 -0.31302807 -0.041934967 -0.33990064 0.1331129 -0.0028671531 0.18983229 0.16048035 0.11238408 -0.14148074 -0.062699236 -0.200095 -0.13214396 -0.03855566 0.29206648 0.19410996 0.32156807 0.0011300796 -0.2796543 0.04657642 0.17827657 0.4011024
없다/Adjective 0.17525895 0.1264834 0.1251373 -0.11839168 0.085349746 -0.028231936 0.31354147 -0.0339089 0.17447704 0.010920022 -0.045348994 -0.17766371 -0.13608153 0.34388617 -0.0045168134 0.0021856052 0.018523263 -0.029544462 -0.012342314 0.115128934 0.02059673 0.17628396 0.29655656 -0.14182892 -0.16550593 0.004053747 0.14301227 0.019305713 0.14076565 -0.009860331 -0.10870397 -0.09073463 -0.030642673 -0.0002987177 -0.023842338 0.24022537 -0.033508 0.112944156 0.06505397 -0.11183333 0.19717085 -0.15472074 -0.19603361 0.027248897 -0.032990053 0.11494644 -0.017077934 -0.18112397 0.24441785 -0.07486044 0.04987719 -0.13536952 -0.014273597 0.05124265 0.20788902 0.02750496 0.17808433 0.14271551 0.12980346 -0.046827022 0.03629551 -0.0077488394 -0.17881764 0.24305147 -0.04605944 0.14916705 -0.046658766 0.17261711 -0.0017467187 -0.03605846 -0.055687066 0.116491236 0.34684938 -0.078462504 -0.008158124 -0.022079533 0.06375342 -0.07722342 -0.13352424 -0.12563664 0.21161984 0.048195157 0.05007387 0.00861798 -0.2360131 -0.088427216 0.15451533 0.01952757 0.23636203 -0.006380764 -0.093868226 -0.19127889 0.18351924 0.09933779 -0.0136505375 0.11201063 0.07408393 0.043960627 -0.0854167 0.0927251 -0.096984096 0.08667315 -0.12699974 0.14599971 -0.017429415 0.0020127902 0.26857355 0.20174177 0.08960189 0.16781503 -0.07931609 -0.12740879 0.06787878 0.035837553 -0.028195102 0.030044585 -0.17206746 -0.11610904 -0.05988939 0.19863987 -0.20063347 -0.2824793 0.029300803 0.19697088 -0.108482435 -0.042160142 -0.18635643 0.038386308 0.00857446 0.078942105 0.054346 -0.119562946 0.08605308 -0.07393303 0.19370405 0.16436495 0.07744217 0.06335884 0.31548202 -0.05283795 0.091170385 -0.1588863 0.07752872 0.06265537 -0.13190849 0.14170092 -0.050477374 -0.12769032 0.049911037 -0.19253343 0.02999763 0.09767911 0.10116921 0.130926 -0.003621806 -0.04786882 0.25552127 -0.03555402 0.09562939 0.1490814 0.28930023 0.045234915 0.028812775 -0.10778638 -0.019815758 -0.23423812 -0.13699152 0.022005273 -0.005594594 -0.03739438 -0.11406773 0.038780056 0.07799416 0.17870691 -0.07943163 -0.018340416 -0.008068657 -0.023832042 -0.17359063 -0.13925207 0.017604632 -0.038307954 -0.0761927 0.14794452 0.114937074 0.1720317 -0.08327366 0.10516952 0.16256745 -0.1683774 0.15478344 -0.17710188 0.28904796 -0.035226386 -0.21601386 0.04310072 0.07463211 -0.14438835 0.08769783 -0.12194768 0.027812425 0.04991339 0.016291974 0.035560373 -0.2857544 -0.07863735 -0.10968309 0.04337135 0.10855234 -0.17926574 0.0008773404 -0.10218489 0.09300752 -0.045767605 0.12542944 0.011455984 -0.11835926 -0.020549329 -0.18844256 0.10814978 -0.24179326 0.15522091 -0.14591001 -0.16569951 -0.13503337 0.18088472 -0.03147394 -0.038053587 -0.114626594 -0.02810075 0.065266296 -0.26334113 -0.004183157 0.048683617 -0.11903918 -0.034292072 -0.0704261 -0.100715496 0.23333512 -0.02168906 -0.09380035 -0.3143669 0.101920284 0.035479806 0.031241626 -0.18661922 -0.042804964 0.084115 -0.059440468 -0.050915487 0.047401134 -0.053554364 0.090887144 0.2346555 0.08709206 -0.12589999 0.13495868 -0.030640405 -0.12870347 -0.0363636 0.11127564 0.11089618 -0.17371395 -0.06913744 0.08853593 0.15708469 -0.22009179 -0.099106215 0.10078854 -0.00789304 0.07729628 0.013854852 -0.03134927 -0.011860997 0.101860516 -0.13423684 0.022924578 0.055262458 0.12903175 -0.08565946 -0.12198502 0.0056652087 0.13866176 -0.029693684 0.13175678 -0.06324433 0.07008343 -0.14762606 -0.1350211 0.06726645 -0.17519648 0.10069345 0.062677644 -0.17520662 -0.037895765 -0.10793139 0.05167137 -0.024706736 0.1013233 -0.028293235
.../Punctuation -0.026073059 0.124178395 -0.048415 0.26211196 -0.284296 0.34257525 -0.023358557 -0.040133074 0.03868474 0.01601729 -0.32858965 -0.13384382 -0.052000087 0.08431346 -0.12031457 0.24951869 0.12282455 -0.019416925 -0.10768908 -0.050293043 -0.22358564 0.38723153 0.10385006 -0.06616132 -0.26652876 -0.039355174 -0.18173999 0.11286599 0.1155534 0.069096126 0.14541775 -0.040902868 -0.04212372 0.020177437 -0.0038911414 -0.15574084 0.11023403 0.06571315 -0.20407812 0.10511457 0.025075745 0.18119039 -0.043480124 -0.089780785 0.07185873 -0.22473046 -0.17519109 0.007155885 0.12990887 -0.0375678 -0.174722 0.05278921 0.15141284 0.008396677 0.22677344 0.00878745 -0.17756933 -0.04880322 0.061491188 -0.09042464 -0.058201183 0.022266377 0.20932303 -0.040884115 -0.07319832 -0.13487303 0.18415508 0.032184947 -0.027762536 -0.18542406 -0.09177374 -0.16349426 0.011894822 -0.0012564402 0.11462666 -0.00949038 -0.34769908 -0.15499836 0.22730054 0.06954505 0.12741178 0.09203453 -0.30207407 -0.09578734 -0.08815663 -0.13881558 0.058044415 0.09157049 -0.12753202 -0.029150188 -0.4098042 0.18353972 0.019099642 -0.061093595 -0.06600246 0.11568933 0.21632518 0.17059682 0.05107349 -0.19424503 0.27845395 0.13381308 0.09480752 0.08028769 -0.061963506 0.1627855 0.19612439 -0.04594309 0.028333813 0.17932394 -0.2078922 -0.048851885 0.25066543 -0.039884772 -0.043361474 -0.16914523 -0.14530383 -0.006437439 -0.10491948 -0.13546301 0.057354867 -0.09309237 0.081219755 -0.11480099 -0.095270574 0.023826005 0.08211197 -0.13862935 0.026426027 -0.16658175 0.23288642 0.005631186 0.09374697 -0.30357832 -0.38011822 0.0066550304 -0.0147106415 -0.1567017 0.1323545 0.036976654 0.106792755 0.13797896 -0.26763782 -0.050415628 0.18484958 -0.19686486 0.098828726 0.074964635 0.23617855 0.14363901 -0.09298743 0.2639149 -0.014224537 0.0032616507 -0.13235705 -0.19849591 -0.09039252 -0.073009476 0.028006924 0.023785029 0.07517883 -0.22077554 0.02731841 -0.28328276 0.1764096 -0.01928259 0.110353254 0.095041655 -0.11637579 0.023110097 -0.0046824967 0.07684507 -0.07305934 -0.17507039 0.040011533 0.15729032 0.09724254 -0.21294092 0.12524204 0.10540702 0.00868106 -0.004038722 0.057718653 -0.11993557 0.2739692 -0.11602704 0.17599139 0.11721513 0.16713211 -0.08234575 -0.2709837 -0.15408696 0.26560634 -0.047972158 0.24570495 0.061627444 -0.11118055 0.12290067 0.15382762 -0.061186306 -0.0069728782 0.22529647 -0.09399411 0.08510081 -0.20706889 0.04864811 -0.13343169 0.018432088 -0.029384006 -0.11491973 0.19660579 -0.09916929 0.032636058 -0.07696135 -0.07701557 0.032134518 -0.046708297 -0.1353068 -0.11715321 0.02139397 -0.13165766 0.13256283 -0.20313449 -0.06878159 -0.12781498 0.21417837 -0.011897547 -0.18906382 0.13312596 0.038002994 0.017946644 0.011594011 -0.2295519 0.037245322 -0.06749363 0.0033354186 -0.0054656 -0.031290326 0.21799783 -0.15045348 0.015803214 -0.001028547 -0.103603564 0.107650034 -0.11368382 -0.39120585 -0.1850212 -0.36290565 0.07644493 -0.010977284 -0.018906653 0.0810356 0.18004507 -0.15247704 0.10812915 0.025073411 0.21167268 0.2517373 -0.07610184 -0.20144391 0.03794964 -0.026250772 0.1414325 -0.26835027 0.13548006 0.18475173 -0.24727765 0.007096898 -0.16865958 0.009170636 -0.013579037 -0.02684046 0.19837964 0.22762638 0.029051358 0.09438964 -0.006119551 -0.06429626 0.04203876 0.08024986 0.06921486 -0.11572115 0.060364593 0.09467801 -0.075755484 0.0683793 0.046551622 0.24067464 0.05283334 0.13714792 0.11543905 -0.23500863 -0.04694672 0.077790156 0.25880277 -0.15889624 -0.08795033 0.0025278763 0.045409985 0.29405367
의/Josa -0.082822025 0.09835113 0.09423514 0.02815842 0.12056643 0.068560384 0.018396072 -0.1423018 -0.056069545 0.054724883 -0.17898166 -0.0019744385 0.0036032756 0.16921762 -0.11205324 -0.2576266 0.0032451423 -0.16827334 0.13211288 0.05752875 0.14247462 0.15311266 0.19241959 -0.09821309 -0.013114891 -0.39822295 0.20912854 -0.089087054 0.055768803 -0.08956415 0.06498981 -0.09084927 -0.15980266 -0.2758607 -0.040053006 -0.023403144 0.1548185 0.08231158 -0.07511787 0.051816944 -0.02789245 0.18569171 -0.21416664 -0.29453287 0.15109155 0.11408567 -0.053656857 0.17488934 -0.14273466 0.011465496 -0.23272495 -0.017868144 0.06894468 -0.1425474 -0.1122528 -0.14785714 -0.07292783 -0.11320875 -0.12604384 -0.040248338 0.25644416 0.04802986 0.1942165 -0.052068822 0.0039973953 -0.13655691 0.24257597 -0.0033783254 -0.063311614 -0.260463 0.11866006 -0.0838148 0.012007268 -0.21881634 0.083333045 -0.02894462 -0.19132394 0.115358494 -0.019517826 0.0030943584 0.1872713 0.091321476 -0.118613526 -0.069157235 -0.075232476 -0.09485119 -0.30235443 -0.05861227 0.15631774 -0.031227855 -0.07465873 -0.37385774 -0.009753302 0.0960184 0.15208717 -0.12372771 -0.14744194 0.0036082393 0.03282351 0.265403 0.15797096 0.11354718 -0.16894105 -0.0930491 -0.13948749 -0.0065088817 0.020832509 -0.17852749 0.17637593 -0.047583904 -0.08740414 -0.1366682 -0.043820098 0.19792908 0.1177759 0.029383486 -0.10940227 0.048002116 -0.2049812 -0.006196379 0.034313157 0.10993998 0.028536933 -0.2548218 0.10669403 -0.10579241 0.24779077 0.20667279 0.2058387 0.013281041 -0.07869811 -0.10966127 -0.09783777 0.1446769 -0.2813883 0.16579129 0.15503983 0.031966172 -0.09324133 -0.013766213 0.10154328 -0.15060481 -0.014858286 0.14169893 0.116038635 0.049965657 0.086554155 -0.10426831 0.13553284 -0.011435075 0.13993742 0.0040772697 -0.23910274 -0.044108946 0.102640994 -0.10836242 -0.32927525 -0.09251085 0.12610836 0.36524457 0.0066433647 -0.16978845 -0.12392518 -0.13951245 0.2204648 -0.26823187 0.0056373426 0.017829126 -0.059271008 0.023559775 0.1271688 -0.057612166 0.0354885 -0.117402464 -0.042017847 0.19782153 0.08298913 -0.20032157 -0.08907566 0.090209045 -0.1363769 -0.12407089 -0.19359143 -0.18077743 0.41501415 -0.056685172 0.025134986 0.3410819 -0.04518319 -0.28127232 -0.13837855 -0.14164086 0.0625815 -0.16975333 0.09189695 0.15842712 0.062547825 0.25579196 0.04255298 0.11631484 0.09283157 0.08444594 -0.011514477 -0.13328055 0.16897668 0.12643032 -0.020448916 0.091343716 0.048469536 -0.15229897 -0.009985693 0.10951156 0.09586112 -0.00043494656 0.041204095 -0.2526586 -0.042470798 -0.2001566 0.06638756 -0.2119071 -0.13015157 0.07117069 -0.06357196 0.011429769 0.32413754 0.08388081 0.20257255 -0.014218317 -0.12080884 0.050951816 -0.06643142 0.01932066 -0.06865127 0.0474099 -0.043015633 -0.07928572 -0.031465314 -0.023874927 0.15648997 -0.047460686 -0.06340595 -0.117258385 0.02074194 0.02303933 0.10644226 -0.2721633 -0.09370898 0.13193758 -0.07326607 -0.2876808 0.14577341 0.13402325 -0.053198885 -0.02714718 -0.089173436 -0.0851282 0.12399697 0.05205158 0.10062084 -0.019754581 0.17657737 -0.15130009 -0.055853527 -0.05379996 -0.09626529 -0.07325883 -0.0024075245 0.11010982 -0.29645422 0.15388466 -0.0070439256 -0.07689473 0.2563684 0.056614798 -0.25762048 0.024012208 0.07699655 0.0027794144 0.0396071 0.17172688 0.060022175 -0.28318474 -0.049571894 -0.22014436 0.008000101 0.13152178 0.14282933 0.087379135 0.02010839 0.023939384 -0.10688137 0.0852251 0.06139787 0.004107931 0.32995734 -0.0066086375 -0.024451325 0.11461671 0.06612383 -0.016004656
있다/Adjective 0.15172575 0.12389917 0.062377214 0.21890193 0.3722198 -0.2999344 -0.0075884648 -0.11958293 0.047791433 0.14057039 -0.020268917 0.20503849 0.03098245 0.17650972 -0.056110676 -0.13417797 0.09973824 -0.21344833 0.08608237 -0.06041723 0.1639649 0.016022813 0.16638796 -0.1874649 -0.24317862 -0.20383371 0.066908814 -0.09155778 0.18858643 0.05128339 -0.025769705 -0.002374868 -0.00091281964 0.05727019 -0.011867758 -0.07522632 -0.120636664 0.036574926 -0.019113231 0.034740206 0.11344598 0.040331293 -0.07686079 0.010068385 0.019695519 0.13856857 -0.05652101 -0.091336094 0.2377695 -0.16510591 -0.098760724 0.035097796 -0.05347499 -0.16694982 -0.05347073 -0.0010239097 0.112440616 -0.08523132 0.0039325943 -0.011577807 0.12568909 0.054767955 -0.029100664 -0.034088887 -0.058988586 -0.060801733 0.19700924 0.1260697 -0.09754523 -0.05808308 0.062736504 -0.076567054 0.13067102 -0.13092528 0.06199797 0.0421075 0.14546262 -0.09680151 -0.23401964 -0.11371766 0.14230737 -0.015319319 -0.115709655 -0.07595786 -0.17006382 -0.14587812 -0.13582145 -0.06093648 0.09890099 0.22114486 -0.00264424 0.013601585 0.15705252 0.1752225 0.07873323 0.03317618 0.03034034 -0.022387344 -0.04292683 0.11647667 -0.01946874 -0.016032983 -0.048647713 0.15657902 -0.05916127 0.09114684 0.15872735 0.11628809 0.09587485 0.13397841 -0.075697586 0.038092546 0.106590815 0.0014113112 0.051114626 0.20088595 -0.113081425 -0.20819359 -0.07557701 0.011350833 -0.1706818 0.009697773 -0.09410979 0.022775423 -0.24993187 -0.12691088 -0.19838984 0.1576122 0.2526446 -0.07078424 -0.05242297 0.0024773236 0.12388139 0.16627346 0.038500242 0.1293304 0.10118374 0.1758253 0.28942588 -0.19892816 0.05704968 -0.06252425 -0.07903668 0.028769244 -0.051182542 -0.01380404 -0.056797758 -0.13505755 0.11083144 -0.062512144 0.25228143 -0.22434841 -0.2300025 -0.13299124 -0.13003261 -0.08270716 0.029054604 -0.09821232 -0.02688654 0.26215225 0.16360343 -0.1678559 -0.05650711 0.05390659 0.115505956 -0.17571838 -0.15832503 0.09860928 0.017120084 0.014896206 -0.19665974 -0.044740036 0.024942009 0.019992849 -0.09952513 0.024099382 -0.19642793 0.04688214 -0.27957767 -0.040378407 -0.11510786 -0.032320153 -0.22194555 -0.15994984 0.17576447 0.0014135216 -0.017118331 0.04159877 0.022732653 -0.0435787 -0.13655132 -0.060141526 0.13360846 -0.0670287 -0.06668938 0.09589688 0.08269411 0.01015738 0.14052111 0.042990223 -0.019139443 -0.26550964 0.0017202452 -0.08995607 -0.15457977 0.03491207 0.030566026 -0.06889507 0.1685858 -0.14804101 -0.06763149 -0.14149565 0.15482794 0.031085802 -0.14763169 0.0033539133 -0.20936601 0.014236002 0.026011806 0.06405793 -0.13933225 0.04446709 -0.31416756 0.028731894 0.0955453 0.18045819 0.092599176 0.1432557 0.092849605 0.17160836 -0.037618484 -0.10532819 0.11352244 0.077368304 -0.035124652 0.070788294 0.076456174 0.002292952 0.22759348 -0.057641383 -0.0077239145 -0.26957563 -0.16701438 0.060746267 -0.18446445 -0.16613406 0.048361044 0.000310506 0.058850538 -0.12174496 0.3069925 0.069230676 0.02333854 0.023421459 -0.040110357 -0.14229819 0.14795163 0.05233543 -0.2346045 0.034973938 0.13434982 0.25985864 -0.20671937 -0.1357722 -0.03585866 -0.033791408 0.017151978 -0.16572934 -0.004151817 0.18268609 0.15022202 0.14530037 -0.08830337 0.016188769 0.046031766 -0.06170843 0.004229761 -0.0085887695 -0.010238301 0.08912952 -0.008196835 -0.09814508 -0.11502701 -0.08366603 0.060158655 -0.08190691 -0.09283844 -0.04873007 0.029914992 -0.07932731 0.02319671 -0.024595035 0.07081819 0.010200047 0.059799787 -0.13673 -0.075298935 -0.07586491 0.03583738 -0.15047759
에/Josa 0.03385666 0.035601668 0.054719932 0.2240025 0.048052367 -0.22377673 -0.06946986 -0.13966632 0.06989857 -0.0051698033 -0.23691745 0.053810358 -0.091454014 0.1369768 0.16805865 -0.08637833 0.029031537 -0.19690031 0.0930616 -0.07841875 -0.18696699 -0.0043034363 -0.08057866 -0.020169653 -0.24874622 -0.018270688 0.0864526 0.036310025 0.101000935 0.06908255 0.11824813 0.09829389 0.018506894 0.08823549 -0.14579868 -0.074764125 -0.0021386435 0.01319877 0.03827537 -0.005407672 -0.20507911 0.18964729 0.08179667 -0.030618586 -0.079483986 0.24624056 -0.07286694 -0.16481008 0.09952576 -0.31008753 -0.0860077 -0.042447463 0.09270971 -0.32540926 0.014117285 -0.32968324 -0.08499605 0.06277806 -0.10434113 -0.097721495 0.06657396 -0.041878384 0.24811675 -0.05081592 -0.062336765 -0.104747936 -0.1572934 -0.06203865 0.21857613 0.005390781 0.033500038 0.09257753 -0.0059743053 0.057517707 0.18044886 -0.35511124 -0.01978659 0.102506414 -0.02449143 -0.11422788 -0.08096043 -0.09173801 0.11484117 0.11942831 -0.1585243 -0.25900534 -0.107191585 -0.05878223 -0.018990489 -0.016507301 -0.24604976 0.23034881 -0.08005027 -0.11847883 0.022555359 0.06453855 0.09507735 -0.061899994 -0.05979093 -0.099218465 0.15133405 -0.24866453 0.18572587 0.10144375 -0.13958126 0.11741247 0.014801691 0.023690322 0.13320196 0.004642737 0.19770844 -0.13914856 -0.016777162 0.05387325 -0.03360025 0.13604145 -0.064841375 0.11232404 -0.21450527 -0.0033999512 -0.054465104 0.006467516 0.012424798 -0.077043265 -0.0058364114 -0.15333164 0.086257964 0.06564652 -0.05045232 -0.26259524 -0.019980343 0.08246343 -0.04407603 -0.26182237 -0.1603381 0.058233134 0.11130861 0.096236914 0.14137048 0.31766245 -0.10244041 -0.09213284 0.013549728 0.04177106 0.15580267 0.039787497 0.062073722 -0.12587184 -0.3902324 -0.17371956 -0.029921839 0.11738088 -0.052470554 -0.03388568 0.01033979 -0.15893601 -0.14818273 0.00675367 -0.011473834 0.29477283 0.022257986 0.14265293 0.018453926 0.11725987 -0.02386718 -0.18759373 -0.053508036 -0.08162019 -0.17741421 0.2350124 -0.055897444 0.2887633 -0.015058948 0.1630276 -0.092189446 0.03776536 0.009441481 0.16750851 -0.11014148 0.16539952 -0.13825372 0.2190634 -0.22684713 -0.07274634 0.112886004 -0.19333813 -0.06807724 -0.033514068 0.069689 0.009485438 0.024001557 -0.0121789845 -0.12725922 -0.14056903 0.2010256 0.0397932 -0.0068923016 -0.2207771 0.18400568 -0.009865612 -0.082377955 -0.14214814 -0.26744628 0.08684879 -0.018267628 0.006103104 -0.24594966 -0.09641269 -0.03613392 0.0581885 0.2658118 0.13503714 -0.074094 0.07272661 -0.07553984 0.0041630943 -0.037196655 0.13555226 -0.094820835 -0.08838092 -0.18835329 -0.007916213 -0.086698584 0.145905 0.35883102 0.0644712 -0.019171942 0.2700098 0.20095022 0.120933235 0.023575198 0.055557046 -0.21399915 0.095923826 -0.2060448 0.011014796 -0.16043045 -0.18611065 0.047192976 -0.08465588 -0.12470967 0.048494563 -0.010483938 0.06946806 0.108148225 -0.033649143 0.024669204 -0.1289519 0.33137 -0.06355855 0.22057743 0.070198685 -0.047994833 0.07848461 -0.1428683 0.16810861 -0.097658776 -0.13260105 -0.17935444 0.008965797 0.13313404 0.0701302 -0.24110785 0.09678527 -0.123146705 -0.011177053 -0.056554746 0.13568437 -0.1554979 -0.17534982 0.0072071007 0.13746452 -0.062338024 0.06016395 -0.10835345 0.19934514 0.0019572799 0.12476237 -0.060058277 0.24551539 0.1930753 0.039907474 0.21260013 0.10681389 0.05100905 -0.09974885 0.03285882 -0.021465778 0.13767357 0.03364755 0.047560595 -0.072840765 0.117836095 0.16318059 0.26086503 -0.09172718 -0.15479073 -0.28659335 0.08488004 -0.16032623
재밌다/Adjective -0.14843227 0.11294466 0.0384318 0.050412416 -0.07415011 0.0485627 0.06795203 -0.53833795 0.20628203 -0.17831792 -0.16227798 -0.17144231 -0.038708232 0.2528685 0.25368303 -0.0008303906 -0.06294384 -0.1288789 0.05505794 -0.35712755 -0.4789651 0.29279715 0.20469172 -0.13126786 -0.17880897 0.2039067 0.24681282 0.06277225 0.0056512626 0.06751677 0.23514286 -0.24342002 0.0670817 -0.3170598 -0.021544367 -0.19424404 0.20170727 0.23109747 -0.2550719 -0.08020875 0.00498273 -0.065024644 -0.31095627 -0.16982652 0.24081874 0.24213928 -0.116728894 -0.49383673 0.0024694803 -0.13246456 -0.30184695 0.09763555 0.016047955 -0.111189306 0.07228773 0.11674048 -0.25252163 0.0067584626 -0.13291445 -0.10805541 0.19831818 -0.04732945 -0.020599868 0.10581196 -0.15107524 -0.12354538 -0.24901795 0.127737 0.16823345 -0.25525287 0.030213712 0.3027785 0.07907953 -0.050811697 0.00023777521 -0.29888383 -0.4014563 -0.3999756 -0.04109776 -0.086516365 0.15490977 -0.3613978 -0.13612777 0.02307684 -0.20412545 -0.17145258 0.06370389 -0.32506955 -0.09542316 -0.012099037 -0.35821402 0.16433142 0.06899763 -0.09647477 -0.08014718 0.049526613 0.23634121 0.1880638 0.107734285 -0.14242555 0.031394735 -0.09798811 0.15506874 -0.07415658 0.3330822 0.41569465 -0.04439706 -0.06103315 0.14666536 -0.16113554 -0.006948677 0.15335254 0.31662294 -0.30499265 0.44284973 0.21978022 0.075101204 0.12789938 -0.12814467 0.013908681 0.08754117 -0.30590925 0.06139063 0.20621851 0.3499979 -0.073386185 0.12606606 0.20121793 0.2628185 -0.40106213 -0.08842277 -0.026122168 0.4225396 -0.58040655 0.052970096 -0.13667239 -0.053682532 0.4738382 0.07242494 -0.025243184 0.07389784 0.030377831 -0.034294542 -0.089823686 -0.11297296 -0.05302856 0.09314436 0.043255106 -0.1282245 0.14723007 0.017753227 0.17249784 0.017786194 0.40519968 -0.29127342 -0.0403503 0.0065372414 0.30596188 0.046259545 -0.07604997 0.15067932 -0.09142683 0.043462064 -0.19885436 0.23608705 0.20360926 -0.11256922 0.27667484 -0.122147255 -0.121819146 -0.51550406 0.3195177 0.0004275957 0.42204127 0.19789949 0.2378631 -0.15011951 0.29614103 -0.2127629 0.080193855 0.18926416 -0.04332083 -0.20837598 -0.10258643 0.13540356 -0.089233994 -0.12788099 -0.09600669 0.04752722 -0.39947712 0.14138244 0.042186033 0.117758065 0.3827135 -0.053688906 -0.15609482 -0.18039931 -0.35875833 -0.1207627 -0.15449311 -0.5284803 -0.07545602 -0.17507018 0.086956196 -0.23021638 0.23743968 -0.05099817 0.13401619 -0.0051222974 0.22500396 0.29007113 -0.27829567 0.043815088 -0.13686977 0.051906444 0.039880008 0.3401158 -0.10906554 -0.38781273 0.031373866 -0.034609936 0.1002331 -0.06754466 1.4802186e-05 -0.17704739 0.25936115 0.017953431 0.09413336 0.1268438 -0.16018148 -0.2140669 -0.17116478 0.03755276 -0.013830155 0.007030366 -0.057999674 -0.11926723 -0.10824154 0.47290254 0.06356749 0.015350429 0.07371379 0.025282165 0.09714229 0.34647098 0.09603784 0.021858117 -0.237988 -0.1277239 0.1280728 0.23990916 0.21916953 -0.023089979 -0.07665499 0.10080913 0.1511108 -0.18083432 0.23054686 -0.2515288 -0.1365105 0.4181651 0.27045304 -0.023954062 -0.0567553 0.20761886 0.028355889 -0.34097147 -0.002410666 -0.24400383 0.06565957 0.23957637 0.03106434 -0.20339182 -0.1994351 0.008943906 0.17444791 0.315499 0.21377413 -0.10490598 -0.13253719 0.14861828 -0.1500118 -0.05855021 -0.11834737 0.050561488 0.10921217 0.056733858 0.0092581995 0.07197593 0.014896383 -0.04157076 0.12410492 0.21415691 0.1428811 0.23923452 -0.11183269 0.038440786 0.15268436 -0.32630134 0.26216167
를/Josa -0.1770093 0.22944346 0.051180694 -0.09343793 0.15154366 -0.17706065 -8.084527e-05 -0.30407885 0.04556702 0.02252939 -0.13836412 -0.004223563 -0.060751587 -0.018250357 0.16503823 -0.0506865 0.00538606 -0.041958243 -0.12041129 -0.17361481 0.09161326 0.28793603 0.14074561 0.07118516 0.03756608 0.116347685 0.164797 -0.009493739 -0.013785577 0.06453587 -0.1478574 0.13239817 -0.0053434973 -0.1780252 -0.18862459 0.030231815 -0.04800476 0.029138759 0.009029765 -0.05017956 0.04996109 -0.13427004 -0.108219914 -0.24968779 -0.04440057 0.02682353 -0.06539301 -0.031090982 -0.18904527 -0.3076639 -0.37061355 0.11939079 -0.00034548732 -0.094474435 -0.07450609 -0.18865786 -0.034321293 0.073419765 -0.032482687 -0.0044343104 -0.13433205 0.083082445 0.035018515 -0.00011452018 -0.058107473 -0.122885466 -0.06564409 -0.18943514 -0.19330873 -0.069486946 0.11652327 -0.07627616 -0.23025858 -0.1412516 0.24116343 -0.0731043 -0.27644485 0.047989435 0.09589861 -0.014181871 0.17888193 -0.20328456 0.21039969 0.10672443 -0.2642708 -0.2432647 -0.1209052 -0.08243497 0.007950541 -0.268854 -0.07072173 -0.011704084 -0.11459673 0.021079076 0.090233 -0.21453206 0.19170198 0.034714673 0.15336992 -0.08467407 -0.034817614 -0.021668462 0.14692375 -0.25111094 -0.19192071 0.041563887 -0.0144559005 -0.16442847 0.1411472 0.054021593 -0.043882176 -0.029144948 -0.049995795 -0.11162037 -0.062093124 0.03660243 -0.038013052 -0.039248165 -0.058684196 -0.26297867 0.105125174 -0.2283333 0.269377 0.035922777 0.16081701 -0.11410137 -0.0075858776 0.11647242 0.1673064 -0.13799995 -0.055968218 -0.22854798 0.20214173 -0.107755885 -0.0532726 -0.12066108 0.09072188 0.10899517 0.112194106 -0.17748618 0.101774335 -0.13775165 -0.1499926 0.034535054 0.02438142 -0.29446334 0.22704086 -0.02877393 -0.05589334 0.032748956 0.03143016 0.10265632 -0.024784043 0.343964 0.07435891 -0.033476833 0.10135864 0.14985354 0.040093455 0.0042613423 0.03013429 0.11982109 -0.14151122 0.036622398 0.035711706 -0.09193448 -0.040238712 0.005648694 -0.18004955 0.12862182 -0.2028969 0.19556747 -0.09225498 0.13896582 -0.09775194 0.053220816 -0.0557368 -0.16818766 -0.10658033 0.25155583 0.05847685 -0.08161525 -0.17013747 -0.2289411 0.14044398 0.07544341 0.054500017 0.16931857 0.048318975 -0.03824051 0.0036028589 0.10592222 0.0852591 -0.0039469684 0.06331811 -0.24952096 0.09060014 0.03393988 0.052998513 0.11169975 -0.12809853 0.05758529 0.12656116 0.15753567 -0.12662302 0.214558 -0.16177264 0.15055515 0.061946157 0.238955 -0.10379826 0.10675584 -0.13487746 -0.046152793 0.16183281 0.022447724 -0.031898305 0.0710048 0.069683015 -0.00032591727 -0.067271724 -0.0021453362 -0.03831665 -0.20993817 -0.16345175 0.22332409 -0.029096806 -0.019056065 -0.0184313 0.24772437 -0.18132865 0.057598103 -0.19221893 0.10808296 -0.16168535 -0.29029754 -0.04282308 -0.067105174 0.44459936 0.1846247 -0.110393055 -0.010674038 0.011396931 0.18343319 0.021081295 -0.12483495 -0.31981692 -0.08298819 0.052541282 0.085337155 0.1759317 0.1965999 -0.13855529 -0.22025648 -0.111407205 0.093069345 0.089474306 0.097126834 -0.124677636 -0.07502619 0.06916094 0.017701417 -0.016848061 0.15921468 -0.04844633 -0.056006245 -0.017940652 0.015870886 -0.23157203 0.016353995 0.3889772 0.14553887 0.1657193 -0.1065307 0.077210516 0.16640104 0.04164688 0.27209535 0.24802424 0.15662907 0.23151916 0.043975938 -0.31122884 0.093664624 -0.12383107 0.2912473 0.08935927 -0.194957 0.035278488 0.08880899 0.06933233 0.050206568 0.016318643 -0.025721963 0.14521231 -0.27468753 0.05430674 -0.050884005 0.02205768 0.00081219035
,/Punctuation -0.09052868 0.03710296 0.039201804 -0.016140403 -0.15746617 0.05220053 0.020126984 0.14623117 0.13584068 0.13614403 -0.10804219 0.010978942 -0.044612125 -0.008765387 -0.03644126 -0.048820913 0.035316817 -0.061960563 -0.059061095 0.12434337 0.011824519 0.15651262 0.012502031 -0.22283985 0.029646818 -0.07612111 -0.07415256 0.036207918 0.17597677 -0.08239951 -0.13071696 -0.04290821 0.21155743 0.03148903 -0.058005802 -0.0616384 0.10965237 0.058120403 -0.19330025 0.17876424 0.07704523 0.018359134 0.046447106 0.0049493057 -0.048214827 -0.046697542 -0.19383574 -0.049764924 0.20938241 -0.04405753 -0.23237781 -0.19278187 0.09711114 -0.059415765 -0.023842206 -0.079930946 -0.08562371 -0.29498377 0.04227815 -0.03894171 -0.22836187 0.16502774 0.1345955 -0.1184963 0.062418357 -0.089005835 -0.06450261 -0.052345056 -0.0325262 -0.15412934 0.045318805 -0.19431227 -0.16056624 -0.21389785 0.056712188 0.07653426 -0.26345405 -0.00044884093 0.08814202 -0.0744805 -0.11193117 0.07296741 -0.120728396 0.038984694 -0.096583314 0.02049616 -0.16959526 0.021838123 0.05355917 -0.17252426 -0.10991954 0.039519694 0.059816588 -0.19980514 0.017802235 0.06586832 0.12176808 -0.10041389 0.13514896 0.034454934 0.26408482 0.06894014 0.083268225 0.032352105 -0.116460234 0.031877898 -0.028278746 0.05470009 0.049183227 0.28506875 -0.20247336 -0.12862162 0.11987899 -0.14954315 -0.111899935 -0.09065853 -0.12715726 -0.21310316 -0.018683769 -0.057811912 -0.07904333 -0.07734734 -0.015589467 -0.14443685 -0.010219246 0.051698364 0.11537396 0.022880511 0.02300525 -0.1042148 0.013618011 -0.041783962 -0.2624339 -0.07062884 -0.1963822 -0.07079763 0.31236178 -0.07808319 -0.06151096 0.17332815 0.13527454 0.2008039 -0.09605582 -0.062463664 0.020231621 -0.13227865 0.26323014 0.026497154 0.115813725 -0.034474313 0.008155693 -0.021906644 0.004313656 -0.19209483 -0.07660902 -0.1359472 0.051168054 0.06336187 -0.19760303 0.06676712 0.04510632 -0.112165846 0.04928587 -0.05844145 0.0025141002 -0.008353377 0.17495863 -0.0048993034 -0.115901895 0.25349608 0.106699236 0.16532765 -0.29659945 -0.28594193 -0.17334145 -0.11431747 -0.062586725 -0.13564721 0.023641102 -0.06705345 0.09634682 0.039874442 -0.06441066 0.036199424 0.19537191 -0.059895225 0.049120713 0.23995143 0.06103437 -0.037086066 0.036883507 -0.23499452 0.29087275 -0.34788963 0.3439428 0.1772276 -0.017075147 -0.056343187 0.20278391 -0.02823161 0.19998884 0.09599799 -0.227484 0.052812207 0.008979168 -0.100243434 0.010246009 -0.18184422 0.09848476 -0.16399577 0.025712179 -0.071398735 -0.13916758 0.07521789 0.112062395 -0.20733029 0.13413292 -0.18442948 0.026918082 0.068223335 -0.2230338 0.049032006 0.21806692 0.11669732 -0.03547373 0.089789495 -0.17581181 0.07582138 0.21022567 0.09676116 -0.013658498 -0.07063939 -0.20518239 0.19266656 -0.1446131 -0.23937298 -0.1027414 -0.093429856 0.1028608 -0.33442423 0.09448233 -0.017025514 -0.1623361 -0.023891853 -0.062660396 -0.1930832 -0.027561426 -0.057912476 0.12950778 -0.22977848 -0.03627343 -0.052654162 0.23022705 -0.17910062 0.06781717 0.0431083 0.12185366 -0.16368696 0.24774055 0.04643296 0.009732647 -0.028066395 -0.09849339 -0.02414703 -0.08394294 -0.080403104 -0.1817262 0.00067079446 -0.122447826 -0.10305703 -0.112225585 -0.120945655 0.03134476 -0.124480784 -0.19928727 0.183807 -0.06206445 0.1739701 0.042775013 0.1823505 0.14772852 0.03700897 -0.16882552 -0.0897992 -0.15516385 -0.040059887 0.0054249503 0.34407908 0.41278982 -0.12995748 0.13883212 -0.011886382 -0.24978906 -0.13285723 0.14984551 -0.14653431 0.02589196 -0.22545797 0.1952293 0.14010859
?/Punctuation 0.21759297 -0.1390371 0.00994367 0.025128128 0.27035502 -0.16415158 -0.20047626 -0.0117646195 0.0670405 -0.15845235 -0.1991382 0.21272004 0.00032200594 0.30612904 -0.09297101 -0.22355083 0.09483509 -0.032322794 0.2543915 0.025293827 0.0012008505 0.11520399 0.06089529 -0.31219548 -0.13758375 -0.03088758 -0.17951205 -0.0020588257 -0.046416026 0.00804994 -0.16345726 -0.02531559 -0.12822185 -0.074183546 -0.24560921 0.1667726 -0.055154506 0.20688742 0.027102811 -0.3930157 0.12861359 -0.014123369 0.04156565 0.20095628 0.033846874 0.014487097 -0.029767478 -0.059940096 0.017021859 -0.22794175 -0.34178302 -0.41334713 0.13799609 -0.09266396 0.026200619 -0.1893746 0.15930471 -0.0968374 0.14447245 0.11946439 0.16437097 0.11803171 -0.0061512087 0.07952128 -0.029116007 -0.12221569 0.039525673 0.008718335 -0.08064681 -0.12957405 0.13149947 0.0486243 0.038098816 -0.13920663 0.05071379 0.28700042 0.012805744 0.05760246 -0.1566465 0.24204159 0.16980417 0.11321843 0.11222802 0.31208193 -0.12893358 -0.08901712 -0.07526165 -0.07238345 0.0014432922 -0.21016091 -0.08862382 -0.019275466 -0.018826663 0.07324531 -0.0062253056 -0.022155149 0.023365354 0.16318165 0.10589768 0.017228894 -0.12216443 -0.09066708 -0.26516786 0.2538912 -0.2277468 0.19635259 0.25508615 0.1220135 0.23443003 0.06516921 -0.18753889 -0.09388978 0.00040545184 -0.057745077 0.07836397 0.26035193 -0.05542269 -0.074280985 0.20823938 0.17533728 -0.12190356 -0.09303994 -0.27004087 0.0017298645 -0.10426283 -0.15913814 -0.1640589 0.27264348 0.20225792 0.13578086 0.0829578 -0.3495571 0.13399974 0.10767731 -0.06057062 -0.0795033 0.1388016 0.17566618 0.19215131 -0.051102236 0.14781596 0.101136535 0.17293394 -0.13832246 -0.14481169 -0.08803832 0.14483608 -0.09576565 -0.18989103 -0.08034234 -0.047991734 -0.08853875 0.16761723 0.18485844 -0.019048557 -0.121255316 0.061289325 0.24151608 -0.048793837 0.20117591 0.14350362 -0.05669931 0.0064833816 -0.026310582 -0.2140414 -0.35487306 -0.27005973 0.17672345 0.056409772 0.01334886 -0.076425366 0.08886608 0.04623723 -0.04335874 0.053160284 0.059034478 -0.22683159 0.06745892 -0.054778855 -0.007604464 -0.08448709 -0.019177485 -0.14603421 0.12799618 0.222515 0.09728444 0.04177689 0.061263002 -0.045011636 0.021787044 0.2655134 0.048139423 0.14580828 -0.23069927 0.25435966 0.13488992 0.13525715 -0.16667512 0.05035805 -0.057852358 0.015747711 -0.051180184 -0.10330596 0.23174314 -0.071541406 -0.16751568 -0.09966339 -0.12403484 0.05365925 -0.14950351 0.041922007 0.009116334 0.042985823 0.068569556 0.15977713 0.050655298 -0.004691544 0.09042068 -0.038923044 -0.053991523 0.15613784 0.022090824 -0.09539621 -0.12667063 -0.16134018 -0.19397281 -0.21886201 0.16744035 -0.007613603 -0.034184746 -0.16237597 -0.48420578 -0.13464591 0.15958616 -0.17757265 -0.1825647 -0.08462929 -0.24301584 0.29802328 -0.21794243 0.03364376 0.126331 -0.1376036 0.15272991 -0.22031556 0.07223739 0.22215249 0.21471986 0.16682278 -0.06758766 -0.019212266 -0.3226399 -0.038222343 0.011843013 -0.3955802 -0.055738736 -0.04659552 -0.0876036 -0.033658363 0.25989828 -0.0510988 0.11648213 -0.26506996 0.21938632 0.15347213 -0.10881614 -0.03739619 -0.18351191 0.27335212 -0.16540469 -0.005053934 -0.05956348 0.02298329 -0.07307629 -0.07292025 -0.24928051 -0.02582036 0.028069118 0.24315548 0.08303201 -0.08812122 -0.0046250494 -0.1265884 -0.17028643 0.23551823 -0.04973117 -0.1251328 0.13363606 0.011958037 -0.09816942 0.05912229 0.2771 0.13853066 -0.13313115 0.06709907 0.024519376 0.12458693 -0.06370049 0.1295707 0.06978375
들/Suffix -0.088857464 -0.038916003 -0.009071635 -0.059798844 -0.11397099 -0.06155964 0.043933455 -0.08132024 0.043822736 0.15687296 -0.21930465 0.112208 -0.16521189 0.0059547736 0.17556083 -0.11017705 0.09352208 -0.18659526 -0.23145267 0.032083213 0.09710663 0.10335395 0.005157786 -0.04465028 -0.028249683 0.05269514 0.1527539 0.11834143 -0.012600691 0.023913508 -0.042491622 -0.012307829 0.19032687 -0.04377398 -0.09300733 0.08646584 -0.10256221 0.03801334 -0.13711901 0.026586048 -0.026689595 0.080745846 -0.07630515 -0.001326434 -0.038837776 -0.12625715 -0.07504739 -0.1451785 0.06270997 -0.14274816 -0.039799046 0.17890503 0.088426866 -0.23866424 -0.18203326 -0.09071884 -0.040322978 0.01998087 0.09972092 -0.19862069 -0.19214784 0.14491424 -0.025028255 -0.11374463 0.018441811 0.056157604 0.007105886 -0.16094002 0.06377611 -0.0332486 0.05299714 -0.07730735 -0.15074311 -0.027170388 0.35781604 -0.22350636 -0.2525568 0.008153558 0.15589827 -0.16964915 -0.035216674 -0.108980626 0.18480124 -0.05095749 -0.14511424 -0.13841593 -0.18011393 0.06939638 0.069772944 -0.20287491 0.0048447275 0.18077143 0.055055223 0.031030102 0.03151908 -0.029286874 -0.023033198 0.07153676 -0.089286014 -0.042378448 0.041254748 -0.15120512 0.068800986 -0.10630889 -0.19404526 0.057967752 -0.0024278807 -0.1619473 -0.05614889 0.034989133 -0.05966886 -0.14004241 -0.01677497 0.06598462 -0.09577688 0.13202412 -0.08650953 0.05074776 -0.13559929 0.018299779 -0.07696393 -0.13365188 0.21550836 -0.10938648 -0.06961215 -0.16775523 -0.026438173 -0.12755069 -0.06487365 -0.025893504 -0.12572195 -0.14611487 0.025861517 0.025063626 -0.04746073 -0.052950695 0.16459587 0.15516058 0.06743451 0.031160576 -0.10098747 -0.11531854 -0.0647693 -0.030845206 0.02047006 0.014732362 0.28171745 -0.098987445 -0.011579439 0.04919432 -0.020508556 0.027881527 -0.092416346 -0.10017836 0.084595464 -0.21056381 0.13378249 0.104351036 -0.058042027 -0.043263912 -0.0039903303 0.23552626 0.064116314 0.019657588 0.08223123 -0.052428115 -0.06595207 -0.1713736 0.02546533 0.06775696 -0.104690544 0.036969792 -0.18682325 -0.09577833 -0.26258835 -0.0321514 -0.08700791 0.10739548 -0.13733637 0.1863486 0.034153033 -0.07155273 -0.14063953 -0.064386696 -0.056394953 -0.20780815 -0.00016291132 0.015466443 0.18812998 -0.035022948 -0.09819123 -0.20576029 0.116366826 -0.12643047 -0.06509711 0.0039617815 -0.011474683 -0.06380335 0.038737953 0.065006815 -0.03742376 -0.07304106 0.072109506 0.07482385 -0.02142487 0.05861965 -0.11806715 -0.02486876 -0.067640014 0.0948466 -0.04433701 0.011884687 -0.07070385 -0.053324796 -0.07443532 0.11251701 0.05267799 0.06744168 0.029027436 -0.06757873 -0.18518876 -0.05902226 0.008032237 -0.049644284 0.041447997 0.055245977 0.1301163 0.2820233 -0.066794716 0.13643447 0.1065394 0.08605307 -0.18619591 0.15257847 -0.2503131 -0.13772884 -0.031046504 -0.046043452 0.035999235 0.030946966 0.015668761 -0.08006097 -0.13557334 0.015364965 0.04032364 -0.18031952 -0.1506024 -0.13203742 0.17797704 -0.09606909 -0.026229005 0.2343137 -0.09123893 -0.029070536 -0.1307626 0.10482077 -0.053267706 -0.15466534 -0.066020004 -0.0848389 0.17763342 -0.011555482 0.0756067 0.1371774 -0.2425769 0.057141475 -0.08769633 0.11278497 -0.24264996 0.06155304 0.19449912 0.13274948 0.09076843 0.04818768 0.025459424 0.10970588 0.12794243 0.20226553 0.2999539 0.043672122 0.10041656 0.0296773 -0.19324562 0.13420348 -0.043716908 -0.0092277955 -0.07657545 -0.11993789 0.12428823 0.10698018 0.0611312 0.09847255 -0.09258024 0.08716081 0.0975956 -0.043586917 -0.22660558 -0.0855886 0.1512817 -0.048610523
나오다/Verb -0.011621617 0.03473071 -0.14705536 0.06296391 -0.01676817 0.016947718 0.10605474 -0.036578946 0.16954897 0.27902257 0.063380666 -0.14282945 -0.16462979 -0.025201766 -0.1981889 -0.21556742 -0.051631954 -0.20876974 0.044185836 0.23904876 0.07499748 0.014928818 0.043539453 -0.030943204 -0.094188616 -0.26090187 0.0424661 -0.18036656 0.082706444 0.08269114 -0.097078875 -0.19100973 0.042602148 0.019818647 0.0058258916 0.0802527 -0.19579522 0.30611235 -0.29561174 -0.088294804 -0.014592588 -0.024130968 -0.07615102 0.13438477 -0.0038430018 0.039865546 -0.12266628 0.01820375 0.032127876 0.0146543905 -0.038826395 0.0003672347 0.10435264 -0.1963705 0.051661436 0.060576767 0.03663295 0.067764565 0.09470264 -0.09175767 0.05581883 0.0786801 0.05635467 -0.2596135 -0.26760322 0.04245759 0.3152437 -0.015589478 -0.10554213 -0.06674501 -0.13957569 -0.03675201 0.109058775 0.040772367 0.15181448 -0.031577677 0.049863994 0.014560244 -0.1485047 -0.15035616 0.10753636 -0.14627557 -0.32535732 0.0017624594 -0.29659227 0.06320737 0.14741044 0.13057216 0.27922535 0.18420821 -0.26118878 0.09826188 0.02672471 0.21721488 0.20049845 -0.15863737 -0.008741245 0.05840807 -0.14277461 0.07681744 -0.019662265 0.08084186 -0.15118042 0.027296506 -0.07740182 0.16038097 0.1701208 -0.1222325 0.058355182 0.07281572 -0.18134762 -0.08675727 0.1715369 0.12914088 0.15343902 0.16798949 -0.08355049 -0.121039845 -0.075768225 0.30478558 -0.28324103 -0.2157058 0.024421507 -0.12383111 -0.193856 0.004373264 -0.1474475 -0.14010166 0.20795009 0.10228263 -0.05372483 0.098716326 -0.16276342 0.019730236 -0.15558419 0.0042599034 0.40019712 0.19952329 0.26505637 -0.08679423 0.0060975207 0.20172267 0.015603004 0.14175351 -0.07947194 0.22178137 0.08111296 0.004584837 0.26290032 -0.047496125 0.26363075 0.03950726 -0.2622608 -0.5554663 -0.3986442 -0.08096659 0.07458853 -0.19026826 -0.11645363 0.03300277 0.20704257 -0.14471477 -0.07866198 -0.1135311 -0.0314433 -0.13018449 -0.11164765 -0.023421723 0.13268086 -0.10851607 -0.14691208 -0.23887825 0.019747514 -0.08120952 0.002798532 -0.20506601 -0.15045944 0.1980518 -0.09496517 -0.038727213 -0.124393895 -0.0078034764 0.14728244 -0.08854437 -0.05105808 -0.10685157 -0.12582035 -0.106566034 0.26024428 -0.23108092 -0.24087928 -0.10698634 0.17065912 -0.16516145 -0.10018396 0.13072596 -0.16135734 0.1857949 0.062619254 -0.06871214 0.058742553 -0.23254198 0.1515918 -0.07323436 0.07583266 0.05473978 0.0039341506 -0.014111602 0.003942993 -0.18088965 0.39902285 -0.07926119 0.06195186 0.0060310224 -0.26359308 -0.06980158 -0.13015959 -0.060065396 -0.11881912 0.15334289 -0.2612295 0.080694504 -0.20982109 -0.004566838 0.060591243 0.00085219485 0.13762361 0.33263502 -0.028867409 0.08078614 -0.059166912 0.11196047 -0.015451771 -0.12666024 -0.14522856 -0.03208193 0.016895434 -0.14665093 -0.120493375 -0.24165402 0.15998273 -0.116892315 -0.31243682 -0.14805886 -0.14048795 -0.26917842 -0.22483207 0.048245344 0.03452154 -0.031215237 -0.031064332 0.21416624 -0.042026665 0.05750559 -0.10575182 0.026685929 0.0026275467 0.10170555 -0.15768847 0.011980059 0.04792947 0.13589972 -0.054057863 0.009778148 -0.11277811 -0.11232456 0.022503668 0.05839013 -0.1284851 -0.12889677 -0.2119294 0.041507196 -0.09840921 0.2836821 -0.13090402 -0.22534432 0.10129417 0.11916875 0.06486854 -0.14871597 -0.13312998 0.025625184 -0.06444705 0.13727635 0.100910015 -0.12233442 0.011837992 -0.027620468 0.21021642 0.061782226 -0.062409714 0.12720284 -0.0100182295 -0.11326781 -0.14142747 -0.08802241 -0.14923994 0.08792061 0.04852349 -0.04348131
하고/Josa -0.20791605 0.037709713 -0.039305925 -0.1828697 0.041895065 -0.08743358 0.21900424 -0.056976695 0.14763565 0.1581574 -0.028344398 0.10848722 -0.04825956 -0.016025402 0.015463034 0.055772595 0.26444602 -0.11894951 -0.11409039 0.048608508 0.31936646 0.053613015 0.0025405209 -0.14879993 0.011623321 0.06754724 0.03139015 0.056615185 0.14758648 -0.060664438 -0.11871089 0.093371175 0.13636363 0.07764018 0.0069775744 0.105218515 -0.039043143 -0.023808654 0.010388192 0.24030904 0.13754328 -0.052934077 -0.17452754 -0.00246355 -0.06733031 0.11138685 -0.10395872 -0.22218937 0.27904186 -0.15788788 -0.096702345 0.13056354 -0.22634839 -0.12714337 -0.25358373 -0.05380111 0.016570963 -0.08039799 0.012470154 -0.009134834 0.029142791 0.11393063 -0.09846163 0.057842452 0.027846275 -0.09852444 -0.16854233 0.033246506 -0.064154066 -0.012195253 0.07047627 -0.24260806 -0.055421688 -0.023978492 0.073535144 -0.15041903 -0.018178547 -0.021612775 -0.043782324 -0.22789478 -0.069209516 -0.075605735 0.08916878 -0.059755582 -0.20329812 -0.069626465 -0.294058 0.0009264808 0.11907593 0.046520203 0.06270302 0.0685299 0.11917899 0.08084751 0.028893147 0.05340946 -0.031744234 -0.1406871 0.14622244 0.21803479 -0.009039562 0.16434546 0.15029053 -0.0080389045 -0.049212027 0.074958555 -0.067719504 -0.17523538 0.01789128 0.03827353 0.085615516 0.1132747 0.01741848 -0.09271861 -0.05813761 0.05320475 -0.13850896 -0.1779792 0.017425098 -0.12157332 -0.05109041 -0.017123763 0.09854195 0.0038172964 0.06318318 -0.024601651 -0.0641732 0.04521921 0.050227847 -0.15008943 -0.14102298 -0.0060444046 -0.0068845367 0.15701954 0.06396274 0.03093137 0.29819518 0.16743806 -0.005303901 -0.11504553 0.023171216 -0.16178468 -0.090327464 0.13490209 -0.16475202 -0.044728983 0.14593285 -0.12356665 0.13405766 0.0052732555 0.21926652 0.02352757 -0.2612073 -0.046672508 0.06432554 0.15499347 0.12303931 -0.0056100525 -0.04710029 0.07331352 -0.014105536 -0.040911455 0.025744982 -0.052532855 0.057616245 0.008936368 -0.04625993 0.010955587 -0.016413294 0.029453613 -0.1204041 0.11639222 -0.1983716 0.06857434 -0.16352098 -0.06582042 -0.22938015 -0.013049488 -0.296628 -0.063463956 0.10778623 0.04383098 -0.18449238 -0.08407431 0.02715436 -0.033139497 -0.11532691 0.12362901 0.06638032 -0.10631433 -0.134304 0.05183182 -0.019615194 -0.10006942 -0.11630681 0.00065672444 -0.08727938 -0.1400318 0.11305972 0.0086940285 -0.012944064 -0.06334403 -0.0012146777 -0.03681792 0.119112566 0.017618863 0.008964887 -0.14432098 0.18653305 0.072662055 -0.15687227 -0.13586774 -0.02208228 -0.02254663 0.06645652 -0.071585 0.048690997 -0.13916539 -0.039394293 0.14152427 -0.21610616 -0.022336915 -0.016547676 0.21200125 -0.03854359 0.34000045 0.03215677 0.16896045 0.17359461 0.2771783 0.021282936 0.056721516 0.01567405 0.20326881 -0.031022625 -0.053960197 0.0932859 0.051466353 0.18251052 -0.060718384 0.15717761 -0.29148895 -0.008676476 0.15030661 0.004425605 -0.047209207 0.050215974 -0.08296273 0.060824934 -0.015244504 0.20323844 0.070467696 0.04509607 -0.00270256 0.05888792 -0.0795642 0.17050464 0.020702159 -0.008225013 -0.06713755 0.06576151 0.12153095 -0.24941327 -0.061139926 -0.21913959 -0.090447746 -0.24870563 0.10015325 -0.05609392 0.106150955 0.057748456 -0.035805956 -0.10038087 -0.12593769 -0.25657186 0.15944941 0.10448542 0.3398932 0.04534132 0.03253825 0.31665793 -0.06898642 -0.267022 -0.00558969 -0.043400463 -0.12355171 -0.018383825 -0.14669113 0.10674024 -0.064572796 -0.06965589 -0.017826986 -0.2163037 -0.009355829 0.055754464 -0.1562962 -0.1318658 -0.13538496 0.00038710484 -0.19379386
정말/Noun -0.026013156 0.047586128 0.007872256 -0.08426202 -0.11842462 0.07894334 0.09909181 0.13672459 -0.14650953 0.2077143 0.14329639 0.24692835 -0.03520312 -0.05107361 -0.13510655 -0.24372147 -0.119987845 -0.1861695 -0.3431246 0.20613477 -0.20868874 -0.07611809 0.24476437 -0.26247162 -0.035133097 0.033776976 0.13126874 0.042246576 0.04578643 0.22748236 0.031893436 -0.22704981 0.17764334 -0.21940821 0.025330503 0.10884331 -0.047009055 0.06202994 -0.11950146 -0.032050163 0.14135693 -0.035363372 -0.036246914 -0.013905505 0.0066305213 -0.29470986 -0.27128884 -0.21459156 0.2301373 0.097525775 0.032328658 -0.071480036 -0.036376063 -0.10373118 -0.018487925 0.0052446104 -0.03497938 0.026561094 0.13870257 -0.033555873 -0.23998463 0.3213379 -0.14876246 -0.22246426 -0.28772965 0.032558743 0.24728566 0.078127295 -0.32095754 -0.17329139 0.065667205 -0.2044907 0.2735231 -0.18966737 0.15177117 0.17130464 -0.07304686 0.017106773 0.13476227 -0.08813432 0.053758696 -0.032224298 -0.047186848 -0.060576517 -0.03217919 0.13553496 0.0030193664 -0.12570685 -0.026869476 -0.11406716 0.15870075 -0.11824351 0.14867164 0.18906721 0.13325414 0.017024657 -0.09544654 0.087281145 -0.051168185 0.017896505 0.025524365 -0.042270053 -0.2866677 -0.036674563 0.17926103 -0.21483529 0.26759657 0.3039985 -0.13531303 0.17230305 -0.43036887 -0.22274594 0.07077427 0.08691821 -0.017303303 0.16782896 0.028365312 -0.029840034 -0.22289054 0.13676296 -0.2252967 -0.20910078 0.056205958 0.06311866 0.012306341 -0.10117757 0.054517988 0.17931217 0.030241515 0.14718926 -0.121940665 -0.026489086 -0.012295531 0.14936212 0.0023798281 0.14394636 0.05678985 -0.008226932 0.09533251 -0.09885491 0.029213792 -0.08606036 0.1926782 -0.1295981 -0.20101246 0.07723713 0.029570771 0.035239764 0.22898917 0.007783512 -0.01872706 -0.14464732 0.08101022 0.06502726 -0.22727299 -0.15536298 0.32779253 -0.14322732 0.09288011 0.030525673 0.31758082 0.049473938 0.001963117 0.0105053475 0.3672516 0.02083869 -0.1684816 -0.13803925 -0.15281805 -0.1395313 -0.027905326 -0.022621391 0.04346777 -0.37586537 -0.16443858 -0.16864747 -0.102322094 0.030136682 -0.18266675 0.03385399 -0.10076319 -0.115324125 -0.014071104 -0.19535124 0.15507461 0.023218315 0.06292324 0.021634495 0.27953893 0.009323134 -0.09129831 -0.1684273 0.27233088 -0.11857429 -0.10303326 0.0020177925 -0.030724574 0.21335503 0.107667655 -0.0825453 0.009288288 -0.007636713 -0.013996957 0.011707625 -0.007303325 -0.1516141 0.006102024 -0.018588888 0.2802898 -0.22760189 -0.14988162 -0.102601215 0.17307031 0.3089726 -0.07519689 0.09294854 0.031447686 0.07730769 -0.042165082 0.19152008 -0.00791247 0.09404159 -0.30995482 -0.12559456 -0.08761263 -0.15106837 0.35977724 -0.007021883 -0.07243169 0.12895216 -0.13142693 -0.03971432 -0.09278504 0.110835664 -0.17659684 -0.18831185 0.0012375187 0.031939987 0.080402255 -0.20860595 0.09227615 -0.2696164 -0.23198451 -0.18553983 -0.09706548 -0.12919337 -0.13928849 -0.0552988 -0.031563118 -0.29511926 -0.1311108 0.15090328 0.18696126 0.10300709 -0.10033426 -0.06385059 0.015556866 -0.07807034 -0.019735403 0.04441013 0.061604746 0.19626473 -0.10131279 -0.080805786 -0.20406589 0.06835804 -0.40645367 -0.17983575 -0.10037321 0.23735486 0.20341983 -0.08778727 0.017832221 -0.083246894 0.16461183 -0.20655218 0.123812884 0.065087974 0.17992476 -0.031839404 0.11826972 0.05200752 0.06854142 -0.12563837 -0.07385963 0.29631215 -0.25600424 -0.020412335 0.14812581 -0.041634478 0.0329187 0.09885969 0.1366145 -0.029062953 -0.059955534 0.03826029 -0.0913775 -0.11049104 0.18627356 0.19559927
이다/Verb -0.2658977 -0.015716197 -0.11559619 0.09165073 -0.27273914 0.049700502 0.15939388 -0.009264796 0.26369894 0.29541653 -0.11421506 0.16911508 -0.06527239 -0.15667829 -0.07082175 0.22229107 -0.03690591 0.036554754 -0.19783518 0.33164316 0.4002063 0.09916876 -0.080453634 0.09741631 -0.18733482 0.16865243 0.026384002 0.16668493 0.1815446 0.09007655 -0.09673326 0.1945922 0.1945794 0.20133218 0.09609368 0.11141392 -0.35035273 -0.06399244 -0.11189397 0.11421933 -0.12169257 -0.049103472 -0.0645363 0.052592605 -0.21295214 -0.13736133 0.05666947 0.06726341 0.2693764 -0.29733348 0.120004036 0.0594396 -0.077576995 -0.018281106 0.08003522 -0.21196336 -0.03151548 -0.019814625 0.14776509 -0.017485015 -0.28362375 0.09318051 0.07629871 0.08717458 0.039727077 -0.2747509 0.240373 -0.2303814 -0.0031110956 -0.026812738 -0.1843338 0.009513778 -0.26056376 0.032698046 0.2014745 -0.20234013 0.08051967 0.0965631 0.05852172 -0.3305095 -0.133497 0.087362625 -0.03295115 0.02430268 -0.2571919 -0.11293201 -0.16876304 0.23351525 0.2044357 -0.077897094 -0.17292066 0.07678923 -0.15836918 0.114579014 -0.026954882 -0.01615417 -0.07841709 0.117598325 -0.025187975 -0.011249553 0.26379502 -0.0957584 0.15164143 -0.07370258 -0.23064235 -0.0961562 -0.075289585 -0.16357903 0.10512016 0.28797716 -0.0052984906 -0.20935264 0.03319069 0.043896057 -0.29400152 -0.06774257 -0.07470868 0.039570846 -0.11485378 -0.11902619 0.002804541 -0.12102958 0.37517217 -0.08368211 -0.1857723 0.07730934 -0.02403236 -0.13134585 -0.023891736 -0.01292792 0.07919913 0.018447852 -0.29298788 -0.019392256 -0.095757715 -0.13354912 0.23139636 -0.28557217 0.0059253243 0.045424744 -0.087705754 -0.07849128 -0.07873917 0.09014107 0.15792368 0.14220008 0.28166717 0.12861614 0.07032263 0.114157304 0.100164056 0.14821286 -0.26697356 -0.5242446 0.08148807 -0.02415579 0.16751221 -0.17513293 -0.022250986 -0.04283484 0.07834716 0.17187442 0.05046698 0.19128531 -0.1884017 0.032119945 0.028920544 -0.24250282 -0.0002213394 0.20558397 0.010232534 0.089182876 -0.49263513 -0.01293093 -0.2212819 -0.1842104 -0.18322715 -0.30654514 -0.078208655 -0.07824575 0.24990726 0.044663467 0.019575126 -0.099020526 -0.16700304 -0.2111353 0.18234207 0.28012732 0.07229337 -0.17047255 -0.3987529 -0.043219693 0.047214262 -0.34876508 -0.007953592 -0.10657604 -0.0043237633 -0.022643643 0.16607606 -0.18624528 0.17994234 -0.038757388 0.18413198 -0.023954725 0.09133788 0.16746436 -0.21241653 -0.12645687 0.21786906 0.013768191 0.08113474 -0.16181877 0.14803872 -0.040144693 -0.119071074 -0.022644956 -0.24933575 -0.13278069 -0.039307 0.029899776 -0.119142525 0.0008497647 0.06252838 -0.17259824 0.09285616 0.16668808 0.04248877 0.11196104 0.20104443 0.33266822 -0.076985486 0.25563058 -0.22877249 0.14968048 -0.15468729 -0.11085566 0.28262293 0.24988337 -0.018986674 -0.21930316 -0.23044439 -0.24744448 -0.035222005 0.008671109 -0.20422429 -0.2645904 -0.38392204 -0.014609384 -0.0063163913 -0.06825453 -0.083407305 0.18400106 0.055516172 0.027964817 -0.2545294 0.056393184 0.16977052 -0.00818576 0.106004305 -0.0874245 0.05551028 -0.04383611 0.006634963 0.17864704 -0.3907577 -0.03154924 -0.12390261 0.23756751 -0.13977493 -0.021498978 -0.021276025 0.06243599 0.006731889 -0.013174573 -0.03015353 0.08630934 0.18122509 0.20822081 -0.018507991 0.09878495 0.14678659 0.0661168 -0.25719094 0.24302137 -0.06047773 -0.15431668 -0.21280403 -0.26615006 0.026887838 -0.048043497 0.21878381 -0.19201018 -0.19358468 -0.18444692 -0.0642819 -0.21183206 -0.14874144 -0.15241262 0.18786293 -0.019301603
을/Josa 0.067611486 0.16762543 0.15233041 -0.054146107 -0.2201272 0.15048012 0.10034311 -0.056508344 0.12597367 -0.03150888 -0.08074926 0.035844896 0.015533299 0.11364421 -0.14564332 -0.19163433 -0.16947684 -0.05520558 -0.12505002 0.33014143 0.069482855 0.223176 0.06983898 -0.08704376 -0.059783872 -0.0135524785 0.20513524 0.022935096 -0.14758715 0.08262351 0.13994311 -0.042719226 -0.062689304 -0.09190463 -0.010989792 0.15856263 0.057322033 0.16233544 0.028048268 0.1019645 0.106220864 0.011812652 -0.19707957 -0.124098666 -0.057781048 -0.13723798 -0.085962996 -0.06580897 0.15404703 0.19740532 -0.03673352 0.040566955 0.09654237 -0.17150849 -0.047209326 -0.06613454 -0.19778351 0.011491615 0.039617028 -0.11927836 0.06376713 0.10664221 -0.06803988 0.0813674 -0.10079067 -0.22753589 0.14205681 -0.11348577 -0.13653204 -0.35559836 -0.035153054 -0.064314336 -0.00067629316 -0.23167804 0.19521137 -0.21369338 -0.21905094 0.04363757 0.15298359 -0.031607836 0.15600668 0.042917427 0.10700911 -0.016865006 -0.038324036 -0.07431973 -0.2944361 0.011993317 0.2223658 -0.07719652 -0.11530407 -0.27871537 -0.40703857 0.10825684 0.27931234 0.02474141 -0.33654666 0.18267769 0.15092194 0.2459669 0.07347083 -0.099943206 -0.13644168 -0.15945002 0.12248187 0.18888746 0.11865717 -0.2496435 -0.18249309 -0.09790628 -0.15585054 -0.36333773 -0.00017511749 0.0053310296 0.06931317 0.26855928 0.048133586 0.13813813 -0.030669222 0.17654864 -0.08967174 -0.069721244 0.12469056 -0.17893992 0.08712453 -0.1622839 0.1374197 0.1582163 -0.06299931 0.16486488 -0.042267736 -0.24898353 -0.052006863 0.15545759 -0.0025569748 0.0060238284 -0.029094232 -0.0034620871 -0.2142026 -0.051705793 0.052492656 -0.16053827 0.08559905 0.23035936 -0.18118156 -0.00034774866 0.14141232 -0.014262877 0.06920745 0.08913319 -0.07635955 -0.037389465 -0.12503938 0.071482815 0.049974896 -0.1294785 0.016248275 0.04893712 0.22906129 0.00032521464 -0.033827752 0.22305867 0.15529418 -0.043586567 0.13534327 -0.005786528 0.00793317 -0.34201795 0.009980632 -0.18159969 0.015000623 0.10811438 -0.06161511 -0.15508252 -0.13569489 0.023880202 0.15237214 -0.016494093 -0.18425626 -0.01526301 0.10525125 -0.17650215 0.22252189 0.0025557522 0.042953804 -0.11156354 0.21853942 0.2160685 0.17241897 -0.4583131 -0.15652898 -0.26733333 -0.1792028 0.009423171 -0.036218584 0.081821516 -0.24876167 0.1096931 -0.023424793 -0.0065481267 -0.26094976 0.080275916 0.080283195 -0.13483685 0.37509575 0.017892964 -0.1750084 0.0051676235 0.028149333 0.0074792816 0.063223146 -0.01846631 0.26715538 -0.087025024 0.05810148 0.01565717 0.19825633 -0.37009817 -0.12667285 -0.17067854 -0.065293744 -0.15562703 -0.13078581 -0.13352296 0.032695066 0.09697915 0.15309756 0.070826866 -0.024571462 0.014920592 -0.10539261 0.09800455 -0.076811396 0.11151317 -0.1274153 -0.15986277 -0.013716418 0.22443897 -0.020488966 -0.03970226 0.15666005 -0.030010208 0.17539248 0.037411317 0.041565612 -0.17642803 -0.16048223 0.09087164 -0.16901048 -0.027769554 -0.09065718 0.08430188 -0.009962669 0.14454542 -0.15435837 0.05120115 0.12454543 0.17335331 0.12440673 -0.14490432 0.26622415 0.0697533 0.19457029 0.055289414 -0.12265714 0.011332218 -0.27926242 0.110775344 -0.1498823 0.06584484 0.089126416 -0.13544005 0.33601776 0.04837186 -0.34026173 0.0065375045 0.35734913 0.15684302 0.182096 -0.11275722 -0.0296564 -0.020939318 -0.09272206 -0.031027557 0.14470801 0.1121057 0.005260827 -0.18112653 0.038210437 0.1337083 -0.119398944 0.028003735 0.08994791 -0.08268831 -0.032579653 0.034796175 -0.12362429 0.16382125 -0.18639429 0.07237365
것/Noun -0.11260648 -0.11857939 0.2762885 -0.16779554 0.18674156 -0.11945104 -0.008382799 -0.026577823 -0.10126867 0.164674 -0.23454045 0.16632104 0.009377989 0.16958088 -0.07593202 -0.16342995 0.18905742 -0.0102255875 -0.01527521 -0.13063003 0.1497941 0.17433554 0.075241044 -0.36903793 -0.09355067 -0.07166826 0.102110796 0.0007671006 0.06947319 -0.06405696 0.037440624 -0.07653124 0.07366969 -0.16007052 0.13844225 -0.15853721 -0.24054644 -0.0054769735 0.12901929 0.12964675 -0.02262558 0.0014143804 -0.08029133 0.02613163 0.052084245 0.00615895 -0.03278658 -0.1883681 0.36971447 -0.18319416 -0.19165477 0.13591278 0.22253975 -0.22211258 -0.15520386 -0.17145342 -0.06290607 0.21073163 -0.010292065 -0.21053852 0.059563402 0.1154296 -0.16509017 0.059353083 0.277184 -0.09803412 0.09683158 0.107150905 -0.10186165 -0.21927993 -0.0059483573 -0.053145595 0.0134714 -0.16881205 -0.024418615 -0.1893373 0.006145901 -0.0906386 -0.15452416 -0.106626414 -0.10952469 -0.11619085 0.13746503 0.044165388 -0.14391932 -0.31584507 -0.30663612 -0.020443212 0.12393768 0.15591422 0.031986643 -0.033608913 0.19702068 -0.124437526 -0.0512031 0.30434343 -0.12460622 -0.04225731 -0.025550403 0.1572394 0.14537248 -0.050676327 -0.0023052245 0.06921378 0.007014364 0.03373313 0.30437508 0.0011069647 0.04744419 0.052343994 -0.004498881 0.12177438 0.26272452 -0.05484326 -0.06113768 0.10199091 -0.071480386 -0.08150476 0.03593086 -0.07185496 0.009770951 0.03350007 -0.1741748 0.1027242 0.045414764 -0.09444698 0.023245934 0.21081871 0.106604636 -0.020700399 0.0135412235 -0.16093516 0.052249048 0.061305933 -0.227687 -0.10448409 0.11325646 0.24209106 0.054050446 -0.20839852 0.058153838 -0.021495704 -0.0334078 -0.0552607 -0.118994854 -0.044449724 -0.091922894 -0.16937505 0.09970924 -0.07630405 0.048889436 0.1112026 -0.13360259 -0.12356066 0.0014588535 0.048348002 0.17311434 0.13039973 -0.044910155 0.09160334 0.013186495 0.1526631 -0.06796285 -0.07450144 0.09639288 -0.21830928 0.037989527 0.14472334 -0.046053205 0.10364835 -0.17437302 0.117316395 -0.1276831 -0.17922153 -0.123732604 -0.006189988 -0.33733827 0.07251537 -0.38989142 0.042702015 0.06971415 -0.32369378 -0.30265123 0.021552924 0.23783849 0.04362242 0.0038081657 -0.012879694 0.16658409 -0.3244201 -0.30895543 0.0077631627 0.040325172 -0.039549842 -0.14182724 0.06850159 0.07294397 -0.1342703 0.02719588 -0.09861225 0.05419763 -0.2902653 0.061726596 0.046094462 0.06333043 -0.013982422 0.08759918 -0.30248007 0.06781811 0.047047388 -0.065125026 -0.111120716 0.27137616 -0.06782409 -0.1085289 0.017185897 0.12976192 -0.30985898 -0.036808986 -0.018372985 -0.114222795 -0.10323468 -0.10856608 -0.108908676 -0.047378313 0.1937067 -0.014826557 0.29170072 0.010230179 0.03916369 0.020904673 -0.12894128 0.085274465 0.12882489 -0.14953053 -0.13145725 -0.10634742 0.033120736 0.31720388 0.16553892 -0.0031682532 -0.3341659 -0.08820066 0.13319038 0.014518207 -0.034632858 -0.0463867 0.1481699 0.1607404 -0.15509957 0.009416923 0.16514648 -0.027074456 -0.06887066 0.013971339 -0.11675931 0.17086951 -0.16444735 -0.11070978 -0.07219208 0.28144324 0.05582016 -0.12820087 -0.019074004 -0.24726361 -0.034052398 0.030336596 0.11666877 -0.06547956 0.26925892 0.09922333 0.09827591 -0.10941805 -0.14649217 -0.10521673 0.086438596 0.042556845 0.33755565 0.10629938 -0.049073108 0.34065437 -0.32067916 -0.2318561 -0.15572686 0.04915516 -0.10164062 -0.02045327 0.024415331 0.09777471 -0.05290812 0.12071243 0.02572196 -0.17637353 -0.02664173 0.1023914 -0.20251715 -0.23321486 0.08203903 -0.057874493 0.054241136
-/Punctuation -0.10548912 0.24301387 -0.2570322 0.29409638 -0.3191462 0.060201623 0.009945061 -0.062021337 0.27278945 0.17685816 -0.36371043 0.0002973858 -0.0114155 0.37551618 0.0049815993 0.19477694 0.25035945 0.37342653 -0.122763455 0.24951315 0.08614639 0.31125146 0.1976996 -0.19479103 -0.20670107 0.1650764 -0.33744398 -0.008677703 0.1389134 0.1400398 0.0048836996 0.24675699 -0.25815213 0.19839464 -0.16956307 -0.060300827 -0.05028735 -0.02079849 -0.052214496 -0.11487718 0.023757286 -0.2104264 0.014996852 -0.43128487 0.17612861 0.032294724 -0.010784367 0.14065127 0.07049394 -0.20208077 -0.47149706 -0.050763812 0.21140257 0.03195087 0.4806038 -0.3898024 -0.12867141 -0.0851307 0.07807402 0.22605515 0.1031538 -0.039371233 0.10072374 0.33095053 0.05411174 -0.64244634 -0.037479065 0.014794585 -0.27071092 -0.4305145 -0.061477885 -0.23854586 -0.034678347 0.15937148 0.20943615 0.10827575 -0.3326793 -0.24307401 0.10557478 -0.2568715 0.09550496 0.0059264777 -0.19533749 0.20363282 -0.39155382 -0.1705902 -0.09164616 0.34885216 0.0438565 0.05402082 -0.43580726 0.38624826 -0.12857044 0.104708865 0.13738984 -0.2324599 0.3275626 0.1155527 0.17449167 -0.05808892 0.3722361 0.118199386 0.05401148 0.048395716 -0.41768906 0.16758761 0.01190512 -0.04418177 0.24055602 0.4490163 -0.20493127 -0.08829865 -0.13921052 -0.085621834 0.019034222 -0.3103468 -0.35018152 -0.1899105 0.07259354 0.03856597 0.203599 -0.18298535 0.26777384 -0.31090686 -0.20086133 0.14816186 -0.0057095685 -0.07063199 0.016481685 -0.45076126 0.28503123 -0.13795683 0.011605867 -0.45558667 -0.51150197 -0.032781154 0.16287838 -0.3870884 0.18212207 -0.1291044 0.5430583 0.23291846 -0.29992795 0.045429155 0.29228708 -0.23712055 0.30451605 -0.11267592 0.13875811 -0.18813097 0.32386464 0.3062023 -0.149969 0.26732755 -0.22512387 -0.2246806 -0.013449043 -0.08756658 0.02735142 0.0087821325 0.028556233 -0.024030214 -0.11563171 -0.08353873 0.29726976 -0.2514719 -0.1565488 0.43734512 -0.13489653 0.22510578 -0.1384299 0.16852345 -0.13263245 -0.087958775 -0.09144636 0.0008614686 0.101491645 -0.34823436 0.08135484 -0.23520201 -0.26734957 0.23507269 0.19020489 -0.1357539 0.33886242 -0.08368769 0.2203264 0.13315213 0.18859075 -0.0025769358 -0.23933908 -0.1003049 0.22514616 -0.13517359 0.40833217 -0.20715122 -0.16530341 -0.0012155784 0.19390108 -0.06652787 -0.11677479 0.1878595 -0.27733842 -0.21465148 -0.30734882 0.052587617 -0.18021592 0.11598553 0.069779456 -0.013217854 0.34448075 -0.23482487 -0.27539542 -0.20194677 0.21677878 -0.4024071 -0.20200561 -0.14848861 0.14820616 -0.04411158 -0.24438693 0.15875149 -0.20622486 0.101936094 -0.26611343 0.49132568 -0.04999564 -0.02708115 0.19097279 0.056944963 -0.013914099 0.17448814 -0.30447024 0.2667847 -0.14421578 -0.13959736 0.02129216 -0.04319537 0.4012367 -0.37822586 0.26134503 0.14872578 0.06956628 0.3393889 -0.24383667 -0.58582574 0.09337717 -0.028353475 0.26126453 0.22461824 0.27765444 0.034311593 0.23472667 -0.09474487 0.17820379 0.17281649 0.2887571 0.25175643 0.057139814 -0.109442554 -0.24004729 -0.009654172 -0.29725593 -0.30497217 0.24293374 0.10794413 -0.24258828 0.1804131 -0.2532925 -0.4192887 0.06436217 0.0025927376 0.48840782 0.19914849 -0.27716324 0.29305357 0.16033518 -0.03744058 0.21763831 0.22700405 -0.082026295 0.056981515 -0.00022325035 0.09291819 0.19480312 0.013385705 0.06694085 0.17532504 0.12972091 -0.0032409942 0.058898855 -0.41420007 -0.12729532 -0.27122542 0.13664366 -0.20882368 0.050513986 -0.18402275 0.22957277 0.1506519
